tree
version=v4
num_class=1
num_tree_per_iteration=1
label_index=0
max_feature_idx=53
objective=binary sigmoid:1
feature_names=als_score candidate_source_als candidate_source_pop age antiguedad renta renta_log ind_nuevo indrel tipodom cod_prov ind_actividad_cliente num_products tenure_days month prev_ind_ahor_fin_ult1 prev_ind_aval_fin_ult1 prev_ind_cco_fin_ult1 prev_ind_cder_fin_ult1 prev_ind_cno_fin_ult1 prev_ind_ctju_fin_ult1 prev_ind_ctma_fin_ult1 prev_ind_ctop_fin_ult1 prev_ind_ctpp_fin_ult1 prev_ind_deco_fin_ult1 prev_ind_deme_fin_ult1 prev_ind_dela_fin_ult1 prev_ind_ecue_fin_ult1 prev_ind_fond_fin_ult1 prev_ind_hip_fin_ult1 prev_ind_plan_fin_ult1 prev_ind_pres_fin_ult1 prev_ind_reca_fin_ult1 prev_ind_tjcr_fin_ult1 prev_ind_valo_fin_ult1 prev_ind_viv_fin_ult1 prev_ind_nomina_ult1 prev_ind_nom_pens_ult1 prev_ind_recibo_ult1 product_popularity product_prev_popularity prev_owned_candidate ind_empleado pais_residencia sexo indrel_1mes tiprel_1mes indresi indext canal_entrada indfall nomprov segmento candidate_product
feature_infos=[-0.0053428113460540771:1.0400151014328003] [0:1] [0:1] [18:100] [0:250] [6070.2000000000016:554557.38] [8.7113115580897027:13.226355775616131] [0:1] none none [1:52] [0:1] [0:12] [28:7605] [1:12] none none [0:1] none [0:1] [0:1] [0:1] [0:1] [0:1] none none [0:1] [0:1] [0:1] [0:1] [0:1] none [0:1] [0:1] [0:1] none [0:1] [0:1] [0:1] [8.5005793994918696e-08:0.01215939878462116] [2.4141645494556909e-05:0.66487596294563434] none -1:3:4:0:2 -1:15:39:16:30:32:40 -1:2:0 -1:1:0:4 -1:0:1:3 -1:1:0 -1:0:1 -1:114:21:91:90:121:116:118:119:122:113:20:2:8:3:43:92:117:88:6:40:10:24:46:7:123:25:19:1:23:9:0:112:47:42:115:5:11:17:18:103:13:120:4:66:83:106:14:108:111:16:33:77:89:98:99:105:110:29:30:45:69:85:86:95 -1:0:2 -1:30:8:49:43:31:18:52:33:12:2:4:37:38:50:9:6:40:47:13:22:11:17:24:7:14:16:1:34:45:35:41:10:23:27:48:19:39:21:29:26:20:28:25:36:5:51:3:42:0:46:15:44 -1:1:2:0 -1:20:15:16:4:12:19:5:23:9:18:2:21:13:22:0:11:14:17:10:6:3:1:7:8
tree_sizes=2716 6769 6886 6788 6673 6725 6919 6933 6916 6950 6853 6799 6812 6949 6818 6941 6944 6940 6984 6952 7013 6946 6978 6976 6818 6921 6925 6949 6979 6973 6976 6962 6957 7003 6923 6973 6955 6989 6994 6938 6813 6990 6939 6965 6971 6975 6909 6984 6743 6986 6804 6989 6975 6948 6967 6989 6964 6765 6766 6985 6998 6993 6986 6942 6780 6943 6775 7037 6830 6772 7040 6968 6984 6836 6837 6975 7009 7003 6954 6853 6976 6782 7034 6986 7014 6989 7022 6949 7008 7035 7022 7023 6974 7048 6823 6997 7006 7033 7005 6870 6997 7064 6837 7073 6819 6826 7053 7010 6850 6815 6876 7038 7033 6800 6849 6848 7016 6926 6851 7048 7094 6724 6848 7075 7046 6952

Tree=0
num_leaves=25
num_cat=1
split_feature=0 13 0 39 4 5 5 39 11 38 5 0 13 13 5 10 5 45 5 0 14 3 4 0
split_gain=18875.4 16.1694 5.02423 3.965 2.18011 2.38367 1.71245 1.55294 5.38182 1.50355 1.24956 2.2437 0.995875 1.94393 0.914233 0.480551 0.302493 0.231247 0.268393 0.277671 0.201789 0.188779 0.0677627 2.27374e-13
threshold=0.026832412928342823 71.500000000000014 0.98450440168380748 0.0042461669187371818 9.5000000000000018 88464.060000000027 132890.46000000002 0.0094482664938442228 1.0000000180025095e-35 1.0000000180025095e-35 37090.095000000008 0.0010386910289525988 180.50000000000003 640.50000000000011 76116.48000000001 30.500000000000004 168147.18000000002 0 79578.060000000012 1.0014596581459048 7.5000000000000009 43.500000000000007 99.500000000000014 0.0013169161975383761
decision_type=2 2 2 2 2 2 2 2 2 2 2 2 2 2 2 2 2 9 2 2 2 2 2 2
left_child=1 -1 -2 4 -4 -6 -7 10 -9 12 11 -3 -5 -14 -15 16 20 18 -11 21 22 -20 -16 -12
right_child=2 7 3 9 5 6 -8 8 -10 17 23 -13 13 14 15 -17 -18 -19 19 -21 -22 -23 -24 -25
leaf_value=-1.6125958103759221 -1.3349784549351615 -1.669437911361217 -1.3142539663392885 -1.3111440737122035 -1.3405039046255509 -1.3174826058226075 -1.3315317769640902 -1.669437911361217 -1.6334379142494195 -1.3094379124341005 -1.669437911361217 -1.6341437965516692 -1.3267983198919331 -1.3220694923899596 -1.3124131192900574 -1.3192859375430006 -1.3172640000244145 -1.3094379124341005 -1.3094379124341005 -1.3172640000244145 -1.3153395522590123 -1.3145992031779452 -1.3094379124341005 -1.669437911361217
leaf_weight=13.194444894790648 41.111109793186188 12.361111700534822 41.52777624130249 58.611108899116516 27.361110270023346 49.722220420837402 38.472220957279205 41.11111307144165 13.888889431953428 40.27777624130249 475.97224491834641 7.0833336114883414 54.722220361232758 55.416664719581604 33.611109852790833 45.694442808628082 38.333331942558289 66.666664123535156 32.638887643814087 44.722220599651337 33.888887643814087 38.749998569488525 44.444442749023438 196.1111204624176
leaf_count=83 76 89 63 86 53 78 69 296 92 58 3427 47 94 91 50 73 60 96 47 70 52 59 64 1412
internal_value=-1.48975 -1.66746 -1.31796 -1.31702 -1.32408 -1.32761 -1.32361 -1.66843 -1.66035 -1.31514 -1.66908 -1.65658 -1.31711 -1.31826 -1.3164 -1.3148 -1.31343 -1.3119 -1.31295 -1.31417 -1.31212 -1.31224 -1.31072 -1.66944
internal_weight=1545.69 759.722 785.972 744.861 157.083 115.556 88.1944 746.528 55 587.778 691.528 19.4444 364.722 306.111 251.389 195.972 150.278 223.056 156.389 116.111 111.944 71.3889 78.0556 672.083
internal_count=6685 5446 1239 1163 263 200 147 5363 388 900 4975 136 570 484 390 299 226 330 234 176 166 106 114 4839
cat_boundaries=0 1
cat_threshold=2
is_linear=0
shrinkage=1


Tree=1
num_leaves=63
num_cat=4
split_feature=12 39 53 39 4 39 12 4 49 4 12 13 38 13 4 3 4 13 14 3 12 17 12 39 6 6 12 40 13 6 4 39 33 13 13 36 3 3 4 3 13 6 14 48 17 3 6 3 3 52 14 39 1 13 39 6 13 13 3 6 4 6
split_gain=5458.76 3339.36 1152.57 299.586 161.633 122.526 105.185 168.379 70.5314 66.5069 64.5855 54.4688 30.6463 43.8425 28.0216 24.7627 35.6781 22.096 19.2724 20.9184 17.006 10.5672 17.1941 45.5802 15.4658 9.38185 6.4412 25.7128 22.4277 5.49342 4.59225 4.56257 4.4861 6.58197 4.06649 2.69219 2.5261 2.47219 1.4722 1.17365 3.01365 7.85493 1.91836 2.35935 1.03305 1.78485 0.277652 0.185761 0.208313 0.166211 0.149475 0.000538362 0.000343951 0.000316838 0.000134125 5.5015e-05 4.29238e-05 3.5674e-05 3.2335e-05 2.36069e-05 1.76836e-05 1.63429e-05
threshold=1.5000000000000002 0.00065581970067079783 0 0.00012262085783767024 13.500000000000002 0.0042461669187371818 2.5000000000000004 105.50000000000001 1 9.5000000000000018 3.5000000000000004 3384.5000000000005 1.0000000180025095e-35 2916.5000000000005 50.500000000000007 60.500000000000007 6.5000000000000009 1042.5000000000002 3.5000000000000004 50.500000000000007 4.5000000000000009 1.0000000180025095e-35 1.0000000180025095e-35 0.0015441302479176982 11.600049775283896 11.864095032770004 3.5000000000000004 0.10625452230824055 1694.0000000000002 11.538215167250478 163.50000000000003 0.0057137069462654582 1.0000000180025095e-35 5006.0000000000009 2004.0000000000002 1.0000000180025095e-35 29.500000000000004 30.500000000000004 3.5000000000000004 25.500000000000004 541.00000000000011 11.284506271860501 1.5000000000000002 2 1.0000000180025095e-35 43.500000000000007 11.594077800633704 41.500000000000007 48.500000000000007 3 4.5000000000000009 0.0094482664938442228 1.0000000180025095e-35 1258.5000000000002 0.0094482664938442228 11.418983329244957 408.50000000000006 838.50000000000011 42.500000000000007 10.753931601038699 25.500000000000004 12.362275123601757
decision_type=2 2 1 2 2 2 2 2 9 2 2 2 2 2 2 2 2 2 2 2 2 2 2 2 2 2 2 2 2 2 2 2 2 2 2 2 2 2 2 2 2 2 2 9 2 2 2 2 2 9 2 2 2 2 2 2 2 2 2 2 2 2
left_child=2 3 4 32 -1 6 7 -3 15 -5 12 17 13 -11 -8 16 -4 -6 -12 -20 -16 22 52 36 -25 30 27 28 37 -30 -15 35 56 -34 49 -28 -24 -7 -23 54 41 -41 -42 51 47 -46 -36 53 -49 50 -29 57 -10 -33 59 -56 -2 -44 -38 60 -40 -61
right_child=1 5 8 9 11 26 14 -9 21 10 18 -13 -14 25 20 -17 -18 -19 19 -21 -22 38 23 24 -26 -27 31 34 29 -31 -32 44 33 -35 46 -37 58 -39 39 40 42 -43 43 -45 45 -47 -48 48 -50 -51 -52 -53 -54 -55 55 -57 -58 -59 -60 61 -62 -63
leaf_value=0.21759506421207686 -0.059541726030475729 0.17208245292258889 0.064107239053665319 0.16593024830076683 0.067102080552105689 0.22852240315557398 0.23524677202509797 -0.040573135564142875 -0.059427311252850758 0.095378229992065966 0.12903319804402427 -0.0020021196895184039 -0.059472244235612121 -0.012796818790856391 0.14745026162554761 0.10051703723071058 -0.059662756026850484 0.15507846172131731 0.010622800591343899 0.11124240643287926 0.20281647820748044 -0.038484046370355955 -0.027787536141896066 -0.01222202409284537 0.069145426893278128 -0.05941764358229832 0.22729754023384588 0.23145640383550758 0.14912525177784297 0.18593830489981092 0.038176313218773593 0.23618620000997959 -0.059426756801729146 0.00082793895414246541 0.22318064655105319 0.21122593085362587 -0.059536405911313699 0.20909426736891726 -0.059441098150906008 0.0039051186640253928 -0.035172236166016488 -0.059473491070607044 -0.059524179708318317 -0.033816666246352566 0.23423950163153898 0.22078057781599073 0.2167825680714191 0.23033030682439179 0.23479825454298592 0.23690009479318674 0.23557807418969984 -0.059792731943838578 -0.059801005019082115 0.23599820176502517 -0.059671607322818634 -0.059495823148809725 -0.059422235197849831 -0.059431506456807837 -0.05941764358229832 -0.059422114605264933 -0.059550346938598377 -0.059495518507304938
leaf_weight=48.095607668161392 8.195614814758299 33.024234816431999 11.960030406713487 13.130499616265295 11.658940911293032 30.8398707062006 41.047709584236145 12.961870729923247 47.380210101604462 15.938135474920271 19.64452064037323 12.859561130404471 12.305817678570746 10.591060280799871 22.65833505988121 9.2565731555223447 11.346186816692351 18.401998579502106 10.553633555769922 10.117141142487524 35.754903987050056 11.608287587761877 7.7895712256431571 10.341772824525835 13.415868207812307 7.0689897239208213 59.356079369783401 47.492520391941071 16.552042484283447 26.135151877999306 7.5816278457641593 41.720322012901306 10.143127232789995 8.1932255923747999 32.289882615208626 46.447401255369186 7.3838965892791739 34.908762037754059 7.8821781575679761 7.7958432435989407 10.172778725624083 13.109897390007971 11.533347323536871 9.6359737515449506 54.58964167535305 44.889257282018661 35.708792164921761 43.400625094771385 65.399266794323921 53.293039008975029 40.975087210536003 11.98761312663555 7.0772588700056067 48.423804700374603 8.2574525177478808 9.6558969020843488 90.592177018523216 104.24458047747612 25.608415603637695 134.87533740699291 6.9877983629703522 8.0345170497894269
leaf_count=78 61 84 57 35 54 42 53 91 355 67 69 80 92 69 70 38 84 54 63 39 69 80 53 65 63 53 82 62 50 59 41 50 76 51 47 77 55 62 59 48 71 98 86 67 67 68 56 56 81 65 50 88 52 58 61 72 679 781 192 1011 52 60
internal_value=0.105602 0.172117 -0.0157802 2.73452e-05 0.139341 0.216545 0.174675 0.112142 -0.0454591 0.0605368 0.0457836 0.0841171 0.00976301 0.0304527 0.203587 0.0239698 0.00385218 0.120957 0.0935714 0.0598702 0.18134 -0.0506172 -0.0387851 -0.0213266 0.0337259 -0.0105427 0.224975 0.219653 0.199885 0.171664 0.00846912 0.229163 -0.0552163 -0.0325032 0.229873 0.220242 -0.0533976 0.218207 -0.0559973 -0.056588 -0.0536064 -0.0358393 -0.0561233 -0.0576744 0.232326 0.228166 0.219821 0.234407 0.233016 0.234694 0.233365 -0.0594738 -0.0594759 0.236085 -0.0594472 -0.0595769 -0.0594321 -0.0594407 -0.0594442 -0.0594325 -0.0594924 -0.0594262
internal_weight=1690.28 1091.92 598.357 224.056 91.0161 867.869 145.447 45.9861 507.341 106.931 93.8009 42.9205 53.4856 41.1798 99.4609 32.5628 23.3062 30.0609 40.3153 20.6708 58.4132 474.778 118.997 64.5395 23.7576 25.2417 722.422 318.195 108.436 42.6872 18.1727 404.226 117.124 18.3364 209.759 105.803 40.7819 65.7486 355.782 344.173 168.48 20.9057 147.574 137.402 298.423 99.4789 67.9987 198.944 108.8 141.761 88.4676 127.766 54.4575 90.1441 175.693 17.9133 98.7878 115.778 32.9923 157.78 14.87 142.91
internal_count=6708 2794 3914 1395 266 1399 367 175 3648 528 493 188 322 230 192 179 141 108 171 102 139 3469 835 428 128 163 1032 493 213 109 110 539 867 127 280 159 300 104 2634 2554 1239 146 1093 1022 380 135 103 245 137 177 112 955 407 108 1315 133 740 867 247 1182 111 1071
cat_boundaries=0 1 5 6 7
cat_threshold=1092 524 0 16777216 141557760 1 2
is_linear=0
shrinkage=0.05


Tree=2
num_leaves=63
num_cat=8
split_feature=0 13 39 39 46 39 37 4 13 27 4 4 38 52 5 5 5 40 13 0 40 0 2 38 40 40 40 40 46 46 52 4 13 0 39 0 39 0 38 39 4 33 13 13 0 13 0 3 52 3 39 3 0 5 44 3 3 4 48 0 3 0
split_gain=11142 26.4402 3.42915 1.66596 4.64548 1.34779 2.25858 0.934006 0.891414 0.713199 0.388551 0.603443 0.571909 0.64421 0.211156 0.602151 0.249842 0.195569 0.121628 0.115044 0.0119524 0.0189361 0.0095075 0.00713064 0.00735627 0.00447316 0.00276654 0.00249629 0.00183144 0.00131882 0.00116383 0.00110024 0.00106501 0.00069383 0.000689909 0.00102731 0.000596425 0.00193588 0.000367739 0.000347371 0.000303166 0.000301341 0.000520734 0.000278652 0.000253433 0.000248379 0.000209074 0.000181555 0.000108445 7.89664e-05 6.75347e-05 4.2395e-05 6.62262e-05 4.1306e-05 3.83209e-05 3.17965e-05 3.0806e-05 4.41292e-05 2.44117e-05 1.8749e-05 1.48548e-05 1.39829e-05
threshold=0.026832412928342823 71.500000000000014 0.00091891263308507116 0.0094482664938442228 0 0.0055756150339207134 1.0000000180025095e-35 5.5000000000000009 1249.0000000000002 1.0000000180025095e-35 3.5000000000000004 35.500000000000007 1.0000000180025095e-35 1 135680.50500000003 174268.51500000004 102560.22000000002 0.070777821716328196 4360.0000000000009 1.0008296370506289 0.0097788965295874577 0.0010795630514621737 1.0000000180025095e-35 1.0000000180025095e-35 0.39869651265430256 0.035254792966688618 0.044502870815674805 0.070777821716328196 2 3 4 135.50000000000003 3042.0000000000005 0.0017010215669870379 0.00047339726675770227 0.0015354880597442391 0.0002279430365973745 0.0010387841612100603 1.0000000180025095e-35 0.0042461669187371818 6.5000000000000009 1.0000000180025095e-35 5006.0000000000009 4075.0000000000005 0.0002119485288858414 2656.5000000000005 0.0024265348911285405 44.500000000000007 5 55.500000000000007 0.0057137069462654582 60.500000000000007 0.0011991988867521288 39077.685000000005 6 50.500000000000007 25.500000000000004 17.500000000000004 7 2.9072631150484088e-05 27.500000000000004 0.00028432160615921026
decision_type=2 2 2 2 9 2 2 2 2 2 2 2 2 9 2 2 2 2 2 2 2 2 2 2 2 2 2 2 9 9 9 2 2 2 2 2 2 2 2 2 2 2 2 2 2 2 2 2 9 2 2 2 2 2 9 2 2 2 9 2 2 2
left_child=1 -1 -2 20 -5 7 10 -4 -9 17 -7 12 13 -12 16 -16 18 -10 19 -13 36 23 28 24 26 -25 32 46 34 49 54 -29 -22 -30 38 -36 40 48 43 45 -3 51 -43 -23 -6 -32 -24 -41 -38 56 -51 53 -53 -42 -31 -37 -28 -58 -55 -59 -61 -62
right_child=2 3 5 4 44 6 -8 8 9 -11 11 14 -14 -15 15 -17 -18 -19 -20 -21 21 22 27 25 -26 -27 29 31 33 30 39 -33 -34 -35 35 55 37 -39 -40 47 41 42 -44 -45 -46 -47 -48 -49 -50 50 -52 52 -54 58 -56 -57 57 59 -60 60 61 -63
leaf_value=0.011003054745517897 0.20719279623578984 -0.059217119707843213 0.20723436519539551 -0.025991942605604425 -0.0589133972370674 0.19877415735746889 0.18380238992351638 0.19217364746299154 0.19987074761388765 0.19468887855542213 0.19361602600874342 0.19875502542039236 0.19636079308886284 0.18669588355990008 0.19051380107974142 0.19710734076899761 0.19903444946940416 0.20386114625525187 0.19398771565490081 0.19551328361144568 -0.060139551878413258 -0.059685009229867525 -0.061114468900543839 -0.059381254993053016 -0.060267859848673638 -0.060967936247060296 -0.058887546139424166 -0.060603007613051978 -0.059615118912080045 -0.058904944862945341 -0.059458166380240866 -0.059757026904836641 -0.059290129504574442 -0.05901036686804545 -0.059551262451668543 -0.060294296062158241 -0.058895559842842976 -0.059798025326995796 -0.059862649364162537 -0.059396082313827647 -0.059017432311455099 -0.058874278845193501 -0.059425446065879607 -0.059253308336931682 -0.059256097327290397 -0.059100766733234771 -0.06078108767609889 -0.059737071215811594 -0.059081465713810025 -0.059114963591792871 -0.058928809628359252 -0.059058060378152491 -0.058899870214054031 -0.058975357979876047 -0.059021529868010694 -0.060149499828031465 -0.059045530733323005 -0.058874217100223038 -0.058885948785563781 -0.05888686475288088 -0.059016612180323551 -0.058936982113752201
leaf_weight=13.948248803615568 68.877748861908913 8.9199201166629773 28.367206633090973 14.610612213611603 33.251000106334686 70.599873006343842 45.871773570775986 57.07170332968235 84.557790338993073 58.383886352181435 83.584086313843727 43.303184628486633 70.264841854572296 56.272568866610527 58.299443006515503 85.27464447915554 85.58213597536087 48.21159727871418 63.265860095620155 74.372492283582687 7.2458166033029539 6.9017502516508111 12.898310616612436 9.2677642703056353 12.936732500791548 8.5306310355663282 70.7330681681633 7.1701048314571372 7.407132267951968 16.550871998071671 8.126445487141611 8.2832964807748777 7.5200029164552689 13.185779482126234 8.8482262939214724 8.3113075345754606 21.540545463562012 8.7363109737634641 8.4944926500320435 8.216464698314665 6.6003673225641242 9.6009257733821887 7.7402504682540885 8.1543738394975644 6.4395838826894751 12.098662585020064 7.4014325439929953 7.4368189573287955 12.337361216545103 9.3690436184406298 10.150944754481314 10.758895024657251 17.182991176843643 7.9987405091524124 12.276493459939958 6.9718566685914984 7.907585382461547 16.385505378246307 167.58784745633602 11.404110938310621 6.8545566201210013 28.167015835642815
leaf_count=81 89 68 31 97 259 75 59 73 98 69 99 46 76 74 70 94 91 57 72 85 52 51 87 70 92 58 552 50 55 129 61 61 57 102 66 59 168 64 62 62 51 75 58 62 49 93 51 55 95 72 79 83 134 62 95 50 61 128 1308 89 53 219
internal_value=0.0948846 -0.0571695 0.196397 -0.0585115 -0.050096 0.195663 0.194546 0.198639 0.197657 0.199294 0.19526 0.194859 0.192681 0.190832 0.195976 0.19443 0.196809 0.20132 0.195756 0.196706 -0.0592101 -0.0593943 -0.0599678 -0.0591743 -0.0591064 -0.0601417 -0.0590439 -0.0606284 -0.0596219 -0.0590005 -0.0591912 -0.0601495 -0.059707 -0.0592279 -0.0597921 -0.05998 -0.0589622 -0.0591344 -0.0595996 -0.0593812 -0.0589312 -0.05892 -0.0591203 -0.0594512 -0.058969 -0.0592444 -0.0609929 -0.0595581 -0.0589633 -0.0589239 -0.0590182 -0.0589034 -0.0589608 -0.0588946 -0.0589546 -0.0602282 -0.0589109 -0.0589342 -0.05889 -0.0589202 -0.0589364 -0.0589526
internal_weight=1804.62 722.46 1082.16 708.512 54.3012 1013.28 736.691 276.592 248.225 191.153 690.819 620.219 210.121 139.857 410.098 143.574 266.524 132.769 180.942 117.676 654.211 375.207 104.028 271.179 253.38 17.7984 240.443 35.7531 68.2749 225.678 64.7058 15.4534 14.7658 20.5929 47.682 24.1314 279.004 42.6142 23.5506 35.8784 236.39 227.47 17.3412 15.0561 39.6906 20.2251 20.2997 15.6533 33.8779 160.972 19.52 210.129 27.9419 182.187 28.8274 15.2832 141.452 70.7188 175.587 62.8112 46.4257 35.0216
internal_count=6743 5485 1258 5404 405 1169 841 328 297 224 782 707 249 173 458 164 294 155 203 131 4999 2833 756 2077 1949 128 1857 249 507 1748 495 111 109 157 350 175 2166 327 175 271 1839 1771 133 113 308 154 138 117 263 1253 151 1638 217 1421 224 109 1102 550 1370 489 361 272
cat_boundaries=0 1 2 3 4 5 6 7 8
cat_threshold=1 2 1 2 4 4 1 2
is_linear=0
shrinkage=0.05


Tree=3
num_leaves=63
num_cat=2
split_feature=12 39 4 39 49 19 39 12 4 4 39 39 39 12 4 13 4 3 5 14 13 3 10 5 13 4 12 34 5 3 12 19 4 4 4 36 39 3 13 12 39 13 39 3 4 14 26 14 33 32 3 4 38 3 44 39 1 3 39 10 10 13
split_gain=3449.95 1953.05 487.976 190.02 79.7137 75.0695 63.7434 65.6175 106.658 38.0069 36.9052 82.8131 111.696 34.5575 28.967 28.4964 25.5902 26.1956 25.5218 25.2658 21.3209 19.7758 19.5687 17.1335 17.0614 15.2761 11.8912 8.65739 7.5329 6.96164 6.30409 16.5343 5.23988 3.14985 3.1059 2.59843 4.43385 2.47325 2.44337 2.41254 15.6002 3.2702 2.01358 4.64608 1.61549 1.51272 1.015 0.696354 0.523167 0.581251 0.270374 0.219738 0.161105 0.0325075 0.0140155 0.00195958 0.00150912 0.00322863 0.00143207 0.000388606 0.000152942 0.000279591
threshold=1.5000000000000002 0.00065581970067079783 2.5000000000000004 0.00012262085783767024 0 1.0000000180025095e-35 0.0042461669187371818 2.5000000000000004 21.500000000000004 9.5000000000000018 0.00091891263308507116 0.0057137069462654582 0.0055756150339207134 2.5000000000000004 40.500000000000007 1738.0000000000002 6.5000000000000009 52.500000000000007 142919.07000000004 3.5000000000000004 42.500000000000007 52.500000000000007 28.500000000000004 92303.250000000015 3350.5000000000005 83.500000000000014 5.5000000000000009 1.0000000180025095e-35 192274.98000000001 45.500000000000007 4.5000000000000009 1.0000000180025095e-35 119.50000000000001 153.50000000000003 191.50000000000003 1.0000000180025095e-35 0.0055756150339207134 36.500000000000007 4890.0000000000009 2.5000000000000004 0.0094482664938442228 1522.5000000000002 0.00065581970067079783 34.500000000000007 10.500000000000002 2.5000000000000004 1.0000000180025095e-35 3.5000000000000004 1.0000000180025095e-35 1.0000000180025095e-35 43.500000000000007 157.50000000000003 1.0000000180025095e-35 35.500000000000007 1 0.0094482664938442228 1.0000000180025095e-35 40.500000000000007 0.00031001613069946854 36.500000000000007 9.5000000000000018 1093.5000000000002
decision_type=2 2 2 2 9 2 2 2 2 2 2 2 2 2 2 2 2 2 2 2 2 2 2 2 2 2 2 2 2 2 2 2 2 2 2 2 2 2 2 2 2 2 2 2 2 2 2 2 2 2 2 2 2 2 9 2 2 2 2 2 2 2
left_child=2 3 20 30 16 10 7 8 -3 -5 42 12 15 23 -14 37 -4 -18 32 -15 -1 33 24 -11 -17 -9 -27 35 38 -26 -2 -32 -10 -21 44 39 -37 45 -25 40 41 -8 58 -44 -13 -12 48 -42 49 51 -50 52 54 -54 -41 60 -57 59 -6 -58 61 -46
right_child=1 6 4 9 5 -7 27 25 18 13 11 34 14 19 -16 22 17 -19 -20 21 -22 -23 -24 28 29 26 -28 -29 -30 -31 31 -33 -34 -35 -36 36 -38 -39 -40 46 47 -43 43 -45 55 -47 -48 -49 50 -51 -52 -53 53 -55 -56 56 57 -59 -60 -61 -62 -63
leaf_value=0.1542084808993047 -0.058392972441182113 0.1583302231327085 0.082382468465440173 0.12084707311540406 -0.058408857012496485 0.09126036940903659 0.15276241416450151 0.16801753210052098 -0.0012203578180428885 0.037585625372607553 -0.0381693499929118 -0.04012962446777496 0.11855202458964616 0.090394415590225985 0.027946355814716623 0.065135628995110342 -0.059696146124012375 0.06632657017876438 0.076718255349733366 -0.032592078760322586 0.091035050259215974 0.074224002664928124 -0.058831114905382398 -0.059091457011811788 0.025127859974080055 0.11177242461181347 0.15646737391276266 0.14548595312401252 0.016662773959943287 -0.035514750620714568 0.026557325582041116 -0.058494477838618601 -0.058861395974604908 0.012359901829274589 -0.021228442261394267 0.16922855532805003 0.1463282914319991 -0.020688672215381163 -0.020987395720036751 0.17329409443194799 0.16689140930209101 0.1297747364932374 -0.05839292247116127 -0.021831321693101459 -0.058849606817183292 -0.05848569200638646 0.16297287649401077 0.17415595515907584 0.16863053110130985 0.16602656144006059 0.16332939295906407 0.16817172485677587 0.17113609549160338 0.1694251988105418 0.17223431983737802 -0.058373134713717925 -0.05862435579888961 -0.059983415277272439 -0.05899949037916901 -0.059077179656915016 -0.058418195407339051 -0.05841395372756697
leaf_weight=30.298150911927223 84.416219137609005 23.095469683408737 20.262982584536076 13.281042277812956 154.46483271569014 11.156461238861082 30.351747408509254 60.910722464323044 8.076974108815195 15.024958178400992 11.953548260033129 13.151040039956568 18.847381085157394 27.332771845161915 16.582577347755432 13.617576435208319 8.9095655009150523 7.676318332552909 8.851080507040022 9.1251340508461016 23.88500389456749 10.811433494091032 9.5947261005640012 12.258394673466688 8.6351057887077349 32.165392175316811 27.694990709424019 56.966717675328255 6.450829789042472 10.471646107733248 8.5766166374087351 17.12178722769022 7.7028362005949012 6.8018220886588088 6.4503139033913603 40.722880363464355 43.947196915745735 6.3630274385213843 6.4055635482072821 79.058635547757149 54.796213999390602 31.556476265192032 25.104429170489311 13.28857462108135 6.2961569204926482 39.23908656835556 76.139017075300217 82.885596737265587 47.03020453453064 71.894435852766037 49.231558665633202 54.540616646409035 55.836658716201782 55.221116214990616 51.533726930618286 10.6891563385725 15.123944148421293 7.2385903000831595 10.993265353143213 6.8993405103683463 63.987943507730961 8.8728538453578931
leaf_count=50 686 33 72 32 1254 38 44 68 44 78 90 99 47 95 87 61 68 32 35 64 80 42 76 95 48 85 40 91 39 77 50 138 61 40 45 43 66 44 44 78 59 66 204 95 50 317 90 83 48 78 57 59 54 56 51 87 121 54 86 54 519 72
internal_value=0.084493 0.130704 -0.0165101 -0.00562863 -0.0312308 -0.0362107 0.158953 0.130774 0.0811395 0.0416612 -0.0399445 -0.0279597 -0.00012863 0.0304983 0.0761451 -0.0271863 0.0351469 -0.00137001 0.00876066 0.0565895 0.12636 0.0220331 0.0039605 -0.00464854 0.0223709 0.150389 0.132451 0.164338 -0.0299152 -0.00810793 -0.0517921 -0.0301092 -0.0293575 -0.0133947 -0.0551076 0.16564 0.157342 -0.0500876 -0.046014 0.166589 0.161891 0.141045 -0.0560543 -0.0457382 -0.0567599 -0.0537418 0.168324 0.171265 0.169201 0.170059 0.165919 0.171038 0.171685 0.170285 0.172876 -0.0585961 -0.0588816 -0.0590673 -0.0584481 -0.0587662 -0.058452 -0.0585948
internal_weight=1847.87 1267.82 580.054 217.607 525.87 489.022 1050.21 168.497 47.7264 107.492 477.865 274.014 135.305 94.2109 35.43 99.8747 36.8489 16.5859 24.6309 54.0712 54.1832 26.7384 42.3191 40.1397 32.7243 120.771 59.8604 881.713 25.1148 19.1068 110.115 25.6984 15.7798 15.927 138.709 824.746 84.6701 57.5557 18.664 740.076 199.59 61.9082 203.851 38.393 132.259 51.1926 540.486 137.682 464.347 368.085 96.2618 296.191 241.65 111.058 130.592 119.108 39.951 29.2619 165.458 22.0233 79.157 15.169
internal_count=6719 2792 3927 1403 3797 3625 1389 366 173 529 3587 1948 847 497 134 713 172 100 140 241 130 146 262 256 186 193 125 1023 178 125 874 188 105 104 1101 932 109 451 139 823 252 110 1639 299 1056 407 571 142 481 376 105 298 239 110 129 957 316 229 1340 175 641 122
cat_boundaries=0 4 5
cat_threshold=8 0 16777216 15728640 4
is_linear=0
shrinkage=0.05


Tree=4
num_leaves=63
num_cat=5
split_feature=39 11 46 39 3 4 39 11 40 1 40 3 17 39 3 14 33 22 5 40 17 13 4 3 3 45 14 5 33 5 39 33 3 44 4 52 44 39 39 5 4 4 5 13 4 5 3 13 39 14 4 3 5 40 5 4 3 4 13 4 37 3
split_gain=2356.28 1732.84 221.288 194.903 94.2091 85.0297 75.0727 49.6595 44.7203 77.7883 42.1262 40.0544 26.41 26.9368 46.1128 25.4659 22.7437 20.6297 18.5579 16.176 16.162 14.4173 13.3578 11.3194 21.2927 10.8382 14.0551 15.0265 9.04549 11.0507 8.86843 11.494 16.4362 8.74522 8.18534 7.39735 7.15279 6.61277 6.35574 5.43777 13.8887 4.99963 4.3096 4.12502 4.04882 4.03462 3.7973 3.21385 2.74247 6.40172 2.02551 1.962 1.8528 1.64948 2.38506 1.51074 1.37813 1.3652 1.0882 2.07316 0.943259 1.20984
threshold=0.00091891263308507116 1.0000000180025095e-35 0 0.00012262085783767024 26.500000000000004 10.500000000000002 0.0042461669187371818 1.0000000180025095e-35 0.39869651265430256 1.0000000180025095e-35 0.014397516334713376 26.500000000000004 1.0000000180025095e-35 0.0094482664938442228 26.500000000000004 5.5000000000000009 1.0000000180025095e-35 1.0000000180025095e-35 106688.65500000001 0.10625452230824055 1.0000000180025095e-35 5145.5000000000009 6.5000000000000009 39.500000000000007 52.500000000000007 1 8.5000000000000018 125805.34500000002 1.0000000180025095e-35 103615.68000000001 0.0057137069462654582 1.0000000180025095e-35 42.500000000000007 2 148.50000000000003 3 4 0.0062720250012240847 0.00047339726675770227 125805.34500000002 72.500000000000014 11.500000000000002 78314.250000000015 3007.0000000000005 74.500000000000014 115344.48000000001 80.500000000000014 1440.5000000000002 0.0094482664938442228 2.5000000000000004 3.5000000000000004 26.500000000000004 70047.360000000015 0.39869651265430256 78867.165000000008 117.50000000000001 27.500000000000004 107.50000000000001 1073.5000000000002 162.50000000000003 1.0000000180025095e-35 39.500000000000007
decision_type=2 2 9 2 2 2 2 2 2 2 2 2 2 2 2 2 2 2 2 2 2 2 2 2 2 9 2 2 2 2 2 2 2 9 2 9 9 2 2 2 2 2 2 2 2 2 2 2 2 2 2 2 2 2 2 2 2 2 2 2 2 2
left_child=3 2 19 28 47 -6 11 38 25 -10 36 15 50 14 18 -3 17 23 -14 34 44 33 -22 -12 -25 26 42 37 46 -30 55 32 41 -19 -2 39 43 -28 -7 40 -24 -32 -4 -9 -13 -40 -1 -5 -27 -50 -8 -15 -53 56 -55 -16 -52 -56 -54 -60 61 -58
right_child=1 6 8 4 5 7 12 10 9 -11 16 20 13 51 30 -17 -18 21 -20 -21 22 -23 35 24 -26 48 27 -29 29 -31 31 -33 -34 -35 -36 -37 -38 -39 45 -41 -42 -43 -44 -45 -46 -47 -48 -49 49 -51 53 52 58 54 57 -57 60 -59 59 -61 -62 -63
leaf_value=-0.057992022506355427 0.031694347811946293 -0.0017199640459382784 -0.022900832294255689 -0.058209602993443681 0.1067825352087281 -0.05819286620510275 0.15776189773748939 0.015600492997099497 -0.060168470756578551 0.11948956885834068 0.084321923043463892 0.14614696587110429 0.019457131960844185 0.13284704233485253 0.14605526915536574 0.091840617153599868 0.08739944113394324 0.050257969007394758 0.10401933655126983 0.1106921694331849 0.13545870042968283 -0.05960254894057794 0.10005176399408643 -0.0099919263963350619 0.076220771366042606 -0.058142441726279442 -0.058261808386867821 0.058967612175680799 0.016533410869773814 -0.058293613684924972 0.14047437468616011 0.14349395815327234 0.074839527049709031 -0.013467921396144417 0.090497510564926581 0.11726278286488732 -0.059220056723630954 0.0091282962456937563 -0.035500382006229313 0.10106626477549177 0.034767303786820074 0.11092909694189526 -0.058169662811458425 -0.031832823747893028 0.12178176921229344 0.014055912442139069 -0.017691042442381053 -0.018926296645741213 -0.0046702777213040439 -0.058026945108106381 0.13914624421303257 0.13270311800295895 0.15110558498267457 0.15236611871901687 0.14144491290239228 0.13271591447083675 0.15161890449268056 0.12795044331465674 0.13693825180828278 0.15034330232453774 0.15298110973215362 0.14452037914304491
leaf_weight=196.57904703915119 15.690579034388067 12.578640654683115 13.187635682523249 39.565007388591766 28.411383561789989 19.150030098855495 38.985348701477051 9.6502784788608569 12.258893303573132 11.848327204585075 16.593866765499115 34.372120916843414 14.951937943696977 49.897958278656006 37.656904950737953 17.242864958941936 22.682979203760624 10.982548102736473 11.461593091487883 24.914382591843605 24.060433246195316 7.9948177784681311 17.776280730962753 14.555369243025782 14.0994740948081 85.965989530086517 7.7121205851435679 7.9509011805057517 9.7494019046425837 9.9901721626520139 23.366326309740543 31.094657376408577 26.037014983594418 10.560427829623226 9.5017971172928792 22.589039921760559 10.15151757001877 6.8946313485503197 10.660709798336031 25.052752591669559 15.038964234292505 36.978905722498894 25.237067125737667 8.7298804670572263 33.832761026918888 6.6812353283166876 6.0241117849946013 5.995525859296321 8.6821313723921794 15.947346754372118 44.689265467226505 31.599361926317215 63.345843568444252 30.032457649707794 44.39945849776268 48.644491329789162 91.915141105651855 32.433513447642326 64.165196694433689 52.394298270344734 87.102235049009323 173.00668949633837
leaf_count=1657 79 80 93 329 70 159 37 55 88 24 60 45 83 81 44 55 73 52 30 59 36 60 50 93 53 717 64 34 61 82 30 36 83 69 32 48 78 41 81 67 72 82 210 60 68 41 44 42 56 134 58 47 64 34 57 70 88 51 85 52 83 198
internal_value=0.0789806 0.109625 -0.0116302 -0.0200384 0.011562 0.0269797 0.133725 0.0130264 -0.035637 0.0281307 0.0279017 0.105888 0.139176 0.130782 0.11831 0.052377 0.0435435 0.0302419 0.0561511 0.082125 0.115127 -0.00226076 0.102772 0.0514592 0.0324286 -0.0445965 -0.0276732 0.00365551 -0.0536458 -0.0213364 0.126367 0.117426 0.108043 0.0190194 0.0538731 0.0929969 -0.0255338 -0.0264526 -0.0383356 0.0835246 0.0701324 0.122369 -0.0460651 -0.00692854 0.134061 -0.0164081 -0.0567937 -0.0530401 -0.053928 -0.0392182 0.146782 0.141765 0.143869 0.145932 0.140419 0.138536 0.147417 0.135748 0.145831 0.142964 0.148467 0.146983
internal_weight=1941.3 1482.49 245.792 458.808 236.465 190.905 1236.7 162.493 195.685 24.1072 126.001 202.544 1034.16 491.594 230.192 29.8215 97.4695 74.7865 26.4135 50.1068 172.722 29.5378 104.517 45.2487 28.6548 171.578 60.9824 22.5577 222.343 19.7396 203.778 117.477 86.3822 21.543 25.1924 80.457 28.5317 14.6068 36.492 57.868 32.8152 60.3452 38.4247 18.3802 68.2049 17.3419 202.603 45.5605 110.595 24.6295 542.564 261.403 211.505 503.579 106.865 86.3014 396.713 76.833 179.905 116.559 352.024 264.922
internal_count=6764 3545 1631 3219 1375 1004 1914 934 1461 112 653 521 1393 787 458 135 460 387 113 170 386 181 273 206 146 1349 442 139 1844 143 345 231 195 121 111 237 193 105 281 189 122 112 303 115 113 122 1701 371 907 190 606 329 248 569 142 114 427 108 201 137 369 286
cat_boundaries=0 1 2 3 4 5
cat_threshold=1 1 1 2 4
is_linear=0
shrinkage=0.05


Tree=5
num_leaves=63
num_cat=8
split_feature=12 53 53 53 4 11 49 12 4 40 40 2 4 37 40 13 38 13 11 40 5 4 44 14 34 12 40 4 38 13 4 14 3 44 37 40 4 14 4 12 3 48 4 5 5 3 3 5 5 5 5 40 4 13 12 19 4 2 46 2 13 40
split_gain=2460.66 1252.7 640.346 124.943 76.6178 55.6407 40.8616 34.3727 60.8481 35.6754 27.5553 26.1433 29.4593 23.6675 17.0157 12.6618 12.503 20.2793 12.3451 27.2416 20.9147 13.1978 11.4415 11.0891 10.5563 8.59441 87.4469 35.8654 8.31494 7.71154 7.60606 6.39334 5.01232 6.96399 3.43425 5.716 2.91386 2.41829 2.13242 1.17517 3.02939 1.13333 2.41387 0.940259 3.82079 5.88029 0.816427 0.709638 2.39339 0.463698 0.447392 0.193038 0.400317 0.168764 0.13308 0.179879 0.102601 0.0118179 0.00768623 0.00329635 0.00279155 0.00268527
threshold=1.5000000000000002 0 1 2 13.500000000000002 1.0000000180025095e-35 3 3.5000000000000004 9.5000000000000018 0.014397516334713376 0.08238370527335144 1.0000000180025095e-35 39.500000000000007 1.0000000180025095e-35 0.049316323900637074 1738.0000000000002 1.0000000180025095e-35 2210.0000000000005 1.0000000180025095e-35 0.070777821716328196 78314.250000000015 180.50000000000003 4 7.5000000000000009 1.0000000180025095e-35 2.5000000000000004 0.10625452230824055 44.500000000000007 1.0000000180025095e-35 151.00000000000003 113.50000000000001 6.5000000000000009 20.500000000000004 5 1.0000000180025095e-35 0.08238370527335144 207.50000000000003 2.5000000000000004 92.500000000000014 3.5000000000000004 43.500000000000007 6 51.500000000000007 78314.250000000015 67429.72500000002 27.500000000000004 33.500000000000007 125805.34500000002 144956.98500000004 199075.72500000003 92874.690000000017 0.057716043925553975 102.50000000000001 3414.5000000000005 4.5000000000000009 1.0000000180025095e-35 21.500000000000004 1.0000000180025095e-35 7 1.0000000180025095e-35 218.50000000000003 0.022501883728394931
decision_type=2 1 1 1 2 2 9 2 2 2 2 2 2 2 2 2 2 2 2 2 2 2 9 2 2 2 2 2 2 2 2 2 2 9 2 2 2 2 2 2 2 9 2 2 2 2 2 2 2 2 2 2 2 2 2 2 2 2 9 2 2 2
left_child=2 11 4 7 -1 15 10 8 -3 13 29 12 -2 -9 -14 -6 17 -10 32 21 -21 47 31 37 25 26 27 -13 -26 -4 -11 -22 33 -8 39 -36 -5 -19 -31 40 50 43 -43 44 -34 -46 -28 57 -49 51 -27 52 -41 -42 -53 -56 -48 60 59 -45 -20 -50
right_child=1 3 6 36 5 -7 18 9 16 30 -12 24 14 -15 -16 -17 -18 23 19 20 22 -23 -24 -25 28 34 46 -29 -30 38 -32 -33 41 -35 35 -37 -38 -39 -40 49 53 42 -44 58 45 -47 56 48 61 -51 -52 54 -54 -55 55 -57 -58 -59 -60 -61 -62 -63
leaf_value=0.13328745217840826 0.1302751232912466 0.094769040361371126 0.018377545676760362 -0.057556267572135458 0.034305002637283297 0.098536419512826073 0.011234158979147776 0.058979989034592499 0.057061039083093006 0.11587680912442239 0.07490018827055249 0.10157448177803059 0.10447254884313087 -0.059264993390140214 0.036107547290870949 -0.040840772112409059 -0.058426124168182027 -0.02173448040190298 -0.058869237313728243 -0.059432874738201996 0.0084988977787185376 0.020832336334949256 -0.022296938329429167 0.011403470087677758 0.094996764203588893 0.14192840672574811 0.14169621263088344 0.009534462988967313 0.13033522733654782 -0.059201091884380136 0.068338822270253466 0.061854478171644495 -0.057712365986002004 -0.058672807137518782 0.13548832732286478 0.1151324722937298 -0.024385713290713859 -0.058660355232827734 -0.019426820927758302 0.13949611535963916 0.12819614016690825 -0.057640772940806752 -0.016670551846395053 -0.058039792636332015 -0.057532582111292689 -0.0012410155638868296 0.13688344120292625 -0.02329410077520077 -0.05758533342081245 0.13343150453082309 0.13572608030459962 0.13778313476688228 0.13437014806003317 0.12358774158301611 0.14205386231133535 0.13832962474385496 0.1337328174579254 -0.059386432366577827 -0.05759337007286687 -0.059458445998649648 -0.057738145620190966 -0.058832480909318974
leaf_weight=61.194596856832504 40.085059881210327 15.065552555024622 8.9179188907146472 79.650937370955944 9.9956444501876849 26.732478089630604 6.9745404124259949 8.2402193695306778 10.212225906550882 13.542042270302771 12.449259564280508 22.808867603540421 17.156823389232159 8.6994700506329536 19.385889828205109 12.763531260192392 14.362539030611513 6.5431309416890171 6.3030612990260115 12.831193290650843 10.658345915377142 6.0291324332356444 13.005282200872896 13.745546177029608 35.393819987773895 43.405605643987656 86.699888348579407 19.748413361608982 31.425011277198792 7.5387989431619626 22.221665166318417 11.864048779010771 53.520043209195137 7.282177805900572 89.391882002353668 56.148681357502937 7.2209092155098906 13.75468288362026 6.0937068611383438 73.576617002487183 34.119327649474144 9.1899441033601743 5.9053746983408919 8.4098349362611788 10.006939701735975 8.6490706205368024 46.56267137825489 6.8650322407484081 9.5951166301965731 58.102627977728844 88.064229041337967 102.16502356529236 78.967169374227524 47.557100921869278 64.992722868919373 64.697384342551231 58.063445448875427 18.378371670842171 159.16680841892958 7.9801854789257041 40.540220655500889 7.8449297696351996
leaf_count=76 50 36 40 699 44 68 45 40 42 31 47 43 40 67 82 89 118 46 50 98 62 36 86 84 70 39 76 95 36 59 79 49 465 59 91 79 55 110 43 64 39 80 44 71 88 62 43 50 84 59 88 95 77 62 57 57 59 143 1393 61 351 62
internal_value=0.0724481 0.10821 -0.0153837 -0.00592698 0.0879323 0.0496195 -0.0414806 0.0252021 0.00514363 0.0580275 0.0118146 0.12783 0.100675 -0.00174537 0.068205 -0.00783736 -0.0178912 -0.0047361 -0.0460826 -0.0352968 -0.00471773 -0.0507723 0.0150432 -0.0232738 0.130878 0.132122 0.123689 0.0588639 0.111617 -0.0177734 0.0863392 0.0366048 -0.0533477 -0.0244736 0.134583 0.127635 -0.0491422 -0.0467571 -0.0414221 0.136126 0.133075 -0.054914 -0.041613 -0.0557244 -0.0509203 -0.0314354 0.138108 -0.0555944 -0.0483022 0.137595 0.137774 0.138224 0.136843 0.125513 0.139133 0.140196 0.135135 -0.0583119 -0.0576995 -0.0587305 -0.0578903 -0.0581463
internal_weight=1958.46 1391.78 566.686 213.259 110.686 49.4917 455.999 126.387 73.6837 52.7034 34.9997 1178.52 76.6278 16.9397 36.5427 22.7592 58.6181 44.2556 421 143.915 48.3589 95.5559 35.5277 34.0434 1101.89 1035.07 233.883 42.5573 66.8188 22.5504 35.7637 22.5224 277.085 14.2567 801.188 145.541 86.8718 20.2978 13.6325 655.648 213.146 262.828 15.0953 247.733 72.1761 18.656 191.326 89.5267 24.3051 442.502 131.47 384.399 152.544 81.6764 231.855 129.69 104.626 65.2217 175.557 16.39 46.8433 17.44
internal_count=6713 2808 3905 1407 277 201 3628 653 436 217 189 1401 172 107 122 133 400 282 3439 1071 295 776 197 240 1229 1123 316 138 106 142 110 111 2368 104 807 170 754 156 102 637 228 2264 124 2140 615 150 178 740 196 409 127 350 141 101 209 114 102 544 1525 132 401 146
cat_boundaries=0 1 2 3 7 8 9 10 11
cat_threshold=3773460 1092 4205504 1049612 0 16777216 141557760 4 4 1 1
is_linear=0
shrinkage=0.05


Tree=6
num_leaves=63
num_cat=4
split_feature=0 39 13 2 39 12 6 0 0 39 0 13 12 12 14 12 17 0 12 0 12 39 39 38 0 13 12 40 39 12 46 39 46 40 13 40 39 52 13 13 40 38 13 52 39 0 33 13 40 3 40 3 13 6 2 13 40 17 13 39 39 6
split_gain=6035.48 20.7166 11.5748 3.60561 3.02542 20.8235 1.36125 2.37658 1.29917 0.620358 1.30302 1.77924 1.44401 1.0754 0.690041 0.585228 0.441256 0.296246 0.330538 0.273387 0.187588 0.470208 0.0972297 0.0741768 0.0740245 0.0907243 0.0423361 0.0403084 0.0264248 0.0238873 0.0182833 0.0177277 0.0165203 0.0127676 0.0103119 0.0072914 0.00707041 0.00515697 0.00504773 0.00354397 0.00268385 0.00225466 0.00276274 0.00220404 0.00172813 0.00218874 0.00127821 0.00102498 0.00100065 0.000990316 0.000984838 0.00076858 0.000714974 0.00069617 0.000523101 0.000408297 0.000278966 0.00024782 0.000239022 0.000232965 0.000223497 0.000168708
threshold=0.026832412928342823 0.00091891263308507116 71.500000000000014 1.0000000180025095e-35 0.0094482664938442228 1.5000000000000002 10.521132125855628 0.0011990945786237719 0.99507519602775585 0.0057137069462654582 1.0032038092613222 1234.5000000000002 2.5000000000000004 2.5000000000000004 5.5000000000000009 3.5000000000000004 1.0000000180025095e-35 1.0017111897468569 3.5000000000000004 1.0005624890327456 1.5000000000000002 0.00091891263308507116 0.00012262085783767024 1.0000000180025095e-35 1.0034712553024294 3007.0000000000005 2.5000000000000004 0.39869651265430256 0.0042461669187371818 3.5000000000000004 0 0.00047339726675770227 1 0.014397516334713376 823.50000000000011 0.049316323900637074 0.0042461669187371818 2 3449.5000000000005 125.50000000000001 0.070777821716328196 1.0000000180025095e-35 3007.0000000000005 3 0.00047339726675770227 0.00050902739167213451 1.0000000180025095e-35 238.50000000000003 0.049316323900637074 24.500000000000004 0.014397516334713376 53.500000000000007 2916.5000000000005 11.557402136606147 1.0000000180025095e-35 480.50000000000006 0.057716043925553975 1.0000000180025095e-35 4965.0000000000009 0.00091891263308507116 0.0062720250012240847 11.746609549129943
decision_type=2 2 2 2 2 2 2 2 2 2 2 2 2 2 2 2 2 2 2 2 2 2 2 2 2 2 2 2 2 2 9 2 9 2 2 2 2 9 2 2 2 2 2 9 2 2 2 2 2 2 2 2 2 2 2 2 2 2 2 2 2 2
left_child=2 -2 -1 -3 6 32 7 -4 15 10 12 -12 -10 14 -11 -5 -14 18 -15 23 27 22 46 -20 25 -19 28 30 -23 34 31 47 51 -31 -24 -33 -28 49 -29 -32 60 42 -36 59 -45 54 -22 -8 53 56 57 55 -47 -44 -46 -6 -37 -49 -48 -41 -39 -61
right_child=1 3 4 8 5 -7 20 -9 9 13 11 -13 16 17 -16 -17 -18 24 19 -21 21 26 29 -25 -26 -27 36 38 -30 33 39 35 -34 -35 41 37 -38 40 -40 43 -42 -43 48 44 45 52 58 50 -50 -51 -52 -53 -54 -55 -56 -57 -58 -59 -60 61 -62 -63
leaf_value=-0.011639032838787908 0.15239034562058662 0.1384249953928009 -0.057506841278555709 0.12505126984716777 -0.057811376984926138 0.031879870373294858 -0.057989497616599432 -0.01863268692662752 0.13605029570052612 0.11952428755044342 0.11565187062556542 0.12906555607782857 0.12585543101129346 0.12299125212661284 0.12603384137045523 0.11736625565999631 0.13094003025181986 0.1266511397222011 0.12931693843447425 0.12436336902522374 -0.057119263664334265 -0.061013727585264715 -0.0607203455309984 0.12724547849761114 0.12962096827731437 0.12921328244466243 -0.064540299085731181 -0.061089472079603281 -0.06434655684651322 -0.059484272050823829 -0.058459152911944381 -0.060197292373878934 -0.059793021306004918 -0.061926527696967763 -0.059789045515414252 -0.057450675541054042 -0.066325592016896293 -0.058389804950065162 -0.059293805706741899 -0.057075556321633372 -0.059491903977222427 -0.058000987200881308 -0.05882097763675103 -0.057199817199230667 -0.057700962492848167 -0.058499215240270463 -0.057448214356301819 -0.057441184926804625 -0.059162650008060647 -0.058422989329437382 -0.057821377400662427 -0.058055296473680053 -0.057833773842850468 -0.058189617224780721 -0.057326750459175846 -0.057346477062660564 -0.057872066667293068 -0.057136198590217395 -0.057850551511617991 -0.0571673178779896 -0.058755795131300886 -0.057369303548643148
leaf_weight=14.440541356801985 88.692715495824814 69.772795811295509 11.468093253672125 50.060101807117462 5.9044167175889042 7.4761381149291983 6.5513013899326316 5.9826500341296187 87.425257012248039 80.881024107336998 38.457046180963516 69.217720925807953 94.146995663642883 58.632633909583092 81.970416381955147 49.041787356138229 78.037912860512733 70.675774782896042 80.714954435825348 63.015837043523788 76.421901524066925 13.147499158978464 7.6657806709408751 93.025367498397827 114.89431762695312 67.595704793930054 9.9052131026983279 7.4706106260418883 10.859988734126089 8.603673383593561 6.5340676680207244 6.9501309469342223 10.609235115349291 14.156755000352858 7.0343266353011122 6.7542130798101487 12.600945129990576 11.501478672027593 8.2198830693960172 66.754224844276905 11.815431714057921 8.5786053314805013 7.7492595240473809 41.058346547186375 13.242820732295511 6.8674893006682423 8.4474685937166196 8.7655015215277654 7.2420097887516013 6.5928457006812087 8.0192019790410978 6.1181297674775115 9.7921544536948186 10.001075953245161 31.677861332893372 23.598809354007244 9.3846840038895589 27.737705864012241 6.5566234067082396 48.517458513379097 6.5450308695435515 13.137191466987131
leaf_count=78 98 72 102 51 51 26 56 42 82 83 46 63 86 55 76 51 68 61 69 57 701 92 55 78 97 57 57 51 63 65 54 50 78 92 52 60 68 94 63 615 89 73 61 374 115 56 75 78 56 54 69 52 84 83 285 212 80 254 56 443 52 118
internal_value=0.0679885 0.129041 -0.05591 0.127381 -0.0569027 -0.045541 -0.0579363 -0.0441796 0.126727 0.12723 0.128899 0.124275 0.130817 0.126369 0.122801 0.121248 0.12816 0.127428 0.126352 0.127185 -0.0583554 -0.0595494 -0.0582803 0.128208 0.128683 0.127904 -0.0639819 -0.0576698 -0.0625214 -0.059668 -0.057558 -0.058089 -0.0580611 -0.0610033 -0.0590384 -0.0586752 -0.0655399 -0.0584741 -0.0601488 -0.0573108 -0.0589061 -0.0587209 -0.0589137 -0.0572783 -0.0574511 -0.0576186 -0.0572021 -0.0574056 -0.0586673 -0.0579066 -0.0573197 -0.0575453 -0.0581081 -0.0584653 -0.0574371 -0.0574395 -0.0576957 -0.0572094 -0.057624 -0.0571403 -0.0585225 -0.0572104
internal_weight=1994.72 1336.26 658.459 1247.57 644.018 53.7067 590.312 17.4507 1177.79 1078.69 367.285 107.675 259.61 711.406 162.851 99.1019 172.185 548.555 295.389 236.756 572.861 208.971 162.457 173.74 253.166 138.271 46.5136 363.89 24.0075 71.0315 348.199 110.618 46.2306 22.7604 48.2711 59.5438 22.5062 52.5937 15.6905 237.582 29.8619 40.6053 32.0267 231.048 102.639 61.5803 91.426 51.0737 24.9923 22.7317 44.5224 35.6214 16.6596 17.7503 44.9207 29.5032 16.1389 36.5032 15.0041 128.409 18.0465 61.6546
internal_count=6734 1250 5484 1152 5406 419 4987 144 1080 978 345 109 236 633 159 102 154 474 259 204 4843 1649 1369 147 215 118 280 3194 155 537 3080 936 393 157 380 479 125 429 114 2144 235 325 252 2090 914 540 832 457 200 194 401 315 140 144 400 263 140 332 131 1176 146 561
cat_boundaries=0 1 2 3 4
cat_threshold=1 2 4 4
is_linear=0
shrinkage=0.05


Tree=7
num_leaves=63
num_cat=3
split_feature=0 39 13 40 19 39 39 45 14 27 39 40 4 13 13 4 39 13 10 40 11 5 5 11 0 39 39 40 38 14 3 13 27 39 38 4 19 52 0 5 39 0 46 0 3 13 39 3 33 39 13 0 39 4 0 5 4 3 13 0 10 4
split_gain=5336.32 10.7336 5.68574 16.3343 1.61599 1.78451 1.4641 4.12344 5.28425 1.07855 0.914933 1.1531 0.485431 0.446505 0.35664 0.851206 0.336437 0.445319 0.313051 0.151675 0.239158 0.102689 0.137541 0.0763483 0.0654316 0.0913124 0.0469436 0.0270577 0.0262201 0.0247289 0.0235254 0.0158093 0.0122601 0.0109019 0.00872179 0.00521346 0.00429855 0.00423626 0.00413164 0.00298285 0.00271516 0.00726611 0.00270722 0.00196999 0.00188818 0.00166874 0.00161261 0.00202201 0.00130506 0.0010027 0.000949928 0.000941133 0.000689371 0.000602551 0.000577025 0.000346562 0.000325403 0.000290211 0.000273732 0.000191873 0.000171056 0.000150334
threshold=0.026832412928342823 0.00091891263308507116 125.50000000000001 0.08238370527335144 1.0000000180025095e-35 0.0055756150339207134 0.0094482664938442228 0 4.5000000000000009 1.0000000180025095e-35 0.0057137069462654582 0.08238370527335144 78.500000000000014 1133.5000000000002 551.50000000000011 91.500000000000014 0.0062720250012240847 968.50000000000011 30.500000000000004 0.0097788965295874577 1.0000000180025095e-35 81316.710000000006 132890.46000000002 1.0000000180025095e-35 0.0010795630514621737 0.00091891263308507116 0.0062720250012240847 0.39869651265430256 1.0000000180025095e-35 4.5000000000000009 27.500000000000004 71.500000000000014 1.0000000180025095e-35 0.0042461669187371818 1.0000000180025095e-35 111.50000000000001 1.0000000180025095e-35 1 0.00080546736717224132 113756.22000000002 0.0002279430365973745 0.00088457390666008006 2 0.00050902739167213451 47.500000000000007 4039.0000000000005 0.00047339726675770227 41.500000000000007 1.0000000180025095e-35 0.00047339726675770227 1181.5000000000002 0.0021381713449954991 0.0057137069462654582 95.500000000000014 0.00088448263704776775 101876.01000000001 7.5000000000000009 76.500000000000014 5006.0000000000009 0.00033519277349114423 28.500000000000004 191.50000000000003
decision_type=2 2 2 2 2 2 2 9 2 2 2 2 2 2 2 2 2 2 2 2 2 2 2 2 2 2 2 2 2 2 2 2 2 2 2 2 2 9 2 2 2 2 9 2 2 2 2 2 2 2 2 2 2 2 2 2 2 2 2 2 2 2
left_child=2 -2 3 31 5 9 19 23 -9 14 11 -6 13 -12 -3 -16 17 -7 21 40 27 -18 29 45 30 36 -14 37 33 -23 39 -1 34 -27 38 -29 44 -21 46 50 48 54 43 52 55 -8 -32 -48 56 -45 59 -46 60 -51 -42 -26 -4 61 -50 -22 -39 -58
right_child=1 4 6 -5 10 16 7 8 -10 -11 12 -13 26 -15 15 -17 18 -19 -20 20 24 22 -24 -25 25 28 -28 35 -30 -31 32 -33 -34 -35 -36 -37 -38 42 -40 -41 41 -43 -44 49 51 -47 47 -49 58 53 -52 -53 -54 -55 -56 -57 57 -59 -60 -61 -62 -63
leaf_value=-0.061626558318388529 0.13638264227686384 0.12846478915385035 -0.057095060938787016 0.023743667025438526 0.1159213821808814 0.11697506520080614 -0.056903101575624893 0.00034397339107664163 -0.058067173261390687 0.11687334879768796 0.11731792553497865 0.1067252461199179 0.11787449116400078 0.11216858477343211 0.11752964653768048 0.12596426050826146 0.11577871661718542 0.12168561910465417 0.11449094800637293 -0.05675614431142411 -0.057080353903669334 0.11863297883298828 0.11662678741417898 -0.062317968818020202 -0.058779372179148248 -0.060995766559179515 0.11953565805905884 -0.060318466619213064 -0.065094267321086821 0.12005830691032511 -0.058033442117817968 -0.058673291865738102 -0.061478280887203529 -0.062936190553581989 -0.060504564517355114 -0.05833898814790231 -0.060222505277532451 -0.057287699415042505 -0.05999909250165511 -0.058633898642682737 -0.057292354513146619 -0.058582054807887779 -0.058039712570909077 -0.057071606896517649 -0.059005257705360782 -0.057887521256724056 -0.058315098150799882 -0.059293475444566368 -0.057042415527109695 -0.05810668955047199 -0.058066514021310571 -0.059778367625752754 -0.056787989689893875 -0.057505131005998994 -0.056749275566690842 -0.058279993421249413 -0.056712563116600771 -0.057093112647479273 -0.057469386126550205 -0.057446922084794419 -0.056975145695559719 -0.056910465036966389
leaf_weight=7.7388137876987519 84.467562913894653 47.503550603985786 6.5768197774887076 8.491676874458788 89.212355345487595 96.611118301749229 15.621160276234152 8.1073190495371801 7.4117223992943755 57.016884714365005 104.31678037345409 55.166675746440887 67.294778808951378 70.582558244466782 42.495838358998299 101.01231396198273 49.679897800087929 104.37963090837002 100.03251865506172 73.4261774122715 5.4025736600160661 59.835245579481125 74.189039841294289 10.841893494129179 8.0467561632394808 14.155642807483675 115.56554734706879 7.0046869292855245 8.8748255074024183 61.924401044845581 7.9208068177104023 10.934249989688395 7.2957178652286521 14.813309103250502 11.08265610039234 6.3342991471290588 9.127526290714739 13.282637745141985 6.9461704865097991 8.3601828664541227 6.3723857849836376 8.0747083202004415 10.24595222622156 8.8569215685129183 8.6271788477897626 5.9426310658454886 9.3437523916363734 12.145227730274199 8.4225631803274137 6.4903561100363758 5.873383753001689 7.2400274127721778 24.486177198588848 11.607369512319563 21.041543513536453 6.1140339449048033 155.45048257708549 5.5261395871639243 6.7718936502933493 10.522892281413077 6.5293979346752158 10.227480657398699
leaf_count=52 91 42 61 40 79 88 147 54 64 52 88 62 56 66 44 92 45 90 94 701 50 50 66 74 65 98 95 50 50 51 67 91 50 93 81 52 66 120 52 69 58 66 87 82 68 52 77 95 78 55 50 54 233 103 201 51 1491 51 60 94 61 96
internal_value=0.0639992 0.119113 -0.0561305 -0.0337512 0.117988 0.119391 -0.0571328 -0.0487458 -0.0275525 0.122908 0.115767 0.112408 0.117123 0.11524 0.12471 0.123467 0.117795 0.119421 0.116849 -0.0578523 -0.0585376 0.117809 0.118324 -0.0588953 -0.0599096 -0.060965 0.118924 -0.0572176 -0.0627165 0.119358 -0.0589523 -0.0598972 -0.0595701 -0.061988 -0.0592766 -0.0593785 -0.0592723 -0.0570316 -0.0589023 -0.057831 -0.0568619 -0.0572638 -0.0572798 -0.0571705 -0.0589835 -0.0571744 -0.0586433 -0.0588681 -0.0567879 -0.0575075 -0.057523 -0.059358 -0.0569654 -0.0577209 -0.0568755 -0.0585638 -0.0567499 -0.0567367 -0.0572327 -0.0573226 -0.0571847 -0.0567248
internal_weight=2015 1381.29 633.71 27.1647 1296.82 794.68 606.545 47.9247 15.519 248.029 502.139 144.379 357.76 174.899 191.012 143.508 546.652 200.991 345.661 558.621 330.157 245.629 195.949 32.4057 161.893 76.9993 182.86 168.264 37.8438 121.76 84.8934 18.6731 54.7343 28.969 47.4386 13.339 39.1555 154.925 36.356 30.159 228.464 35.4886 81.4988 71.2529 30.028 21.5638 29.4098 21.489 192.975 26.9546 21.7988 15.8672 44.2982 18.0977 27.4139 14.1608 177.781 171.204 15.1945 15.9255 19.812 165.678
internal_count=6761 1251 5510 183 1160 714 5327 391 118 230 446 141 305 154 178 136 484 178 306 4936 2774 212 167 273 1230 545 151 1544 241 101 685 143 422 191 372 102 304 1442 291 263 2162 325 741 654 238 199 239 172 1837 240 194 122 414 158 259 116 1699 1638 138 144 181 1587
cat_boundaries=0 1 2 3
cat_threshold=2 4 2
is_linear=0
shrinkage=0.05


Tree=8
num_leaves=63
num_cat=3
split_feature=0 13 39 39 12 5 40 2 0 14 14 12 0 3 14 39 3 4 13 38 36 0 5 40 12 39 40 12 40 13 12 40 11 46 4 40 4 4 39 3 46 12 39 38 13 39 39 0 5 40 3 39 39 0 0 3 13 19 4 14 3 45
split_gain=4641.29 24.7301 7.63832 6.01755 37.3551 1.39817 2.52552 1.2594 1.10796 0.468393 0.631464 1.8494 1.36073 0.530473 0.661214 0.470593 0.361605 0.470395 0.604616 0.234836 0.171589 0.205633 0.338048 0.13414 0.270758 0.123844 0.100694 0.0289411 0.0231023 0.0232822 0.0225383 0.0219434 0.0185246 0.0150639 0.00943376 0.00495872 0.00495059 0.00460373 0.00459729 0.00328298 0.00233818 0.00195034 0.00208662 0.00151118 0.00150731 0.00142014 0.00123142 0.00111774 0.00109499 0.000966012 0.000881525 0.000548248 0.000525033 0.0014041 0.000453691 0.000428283 0.000355004 0.000343189 0.000320229 0.000256259 0.000255971 0.000137961
threshold=0.026832412928342823 42.500000000000007 0.00091891263308507116 0.0094482664938442228 1.5000000000000002 37090.095000000008 0.057716043925553975 1.0000000180025095e-35 0.98930087685585033 1.5000000000000002 5.5000000000000009 2.5000000000000004 1.0008297562599184 25.500000000000004 8.5000000000000018 0.0057137069462654582 33.500000000000007 23.500000000000004 2956.0000000000005 1.0000000180025095e-35 1.0000000180025095e-35 1.0012857913970949 126323.53500000002 0.0097788965295874577 1.5000000000000002 0.00091891263308507116 0.070777821716328196 2.5000000000000004 0.39869651265430256 100.50000000000001 3.5000000000000004 0.070777821716328196 1.0000000180025095e-35 0 28.500000000000004 0.044502870815674805 6.5000000000000009 96.500000000000014 0.0042461669187371818 27.500000000000004 1 3.5000000000000004 4.4458030259342483e-05 1.0000000180025095e-35 3414.5000000000005 0.00047339726675770227 0.0057137069462654582 0.00033517228439450269 107200.66500000002 0.044502870815674805 33.500000000000007 0.0057137069462654582 0.0002279430365973745 0.0008845459669828416 0.0013297433033585551 53.500000000000007 2428.0000000000005 1.0000000180025095e-35 17.500000000000004 5.5000000000000009 76.500000000000014 2
decision_type=2 2 2 2 2 2 2 2 2 2 2 2 2 2 2 2 2 2 2 2 2 2 2 2 2 2 2 2 2 2 2 2 2 9 2 2 2 2 2 2 9 2 2 2 2 2 2 2 2 2 2 2 2 2 2 2 2 2 2 2 2 9
left_child=1 -1 -2 5 33 6 -3 -4 -9 -10 11 12 -11 -12 15 -15 -16 -18 -19 -20 21 22 -13 36 28 30 -23 31 29 -25 34 -27 40 55 -26 -32 -7 -30 -29 48 -31 52 57 44 -36 -41 47 -47 59 -42 -51 -52 60 -54 -46 58 -49 -43 -5 -34 -38 -60
right_child=2 3 7 4 -6 23 -8 8 9 10 13 20 -14 14 16 -17 17 18 19 -21 -22 26 -24 24 25 27 -28 38 37 32 35 -33 39 -35 43 -37 41 -39 -40 45 49 42 -44 -45 54 46 -48 56 -50 50 51 -53 53 -55 -56 -57 -58 -59 61 -61 -62 -63
leaf_value=0.036927991975496025 0.12444979777071506 -0.057176434778196505 0.11685991675608501 -0.057057625467906464 0.063531941022776733 -0.057552468444962784 -0.016097602770792623 0.10359614861119555 0.11387750753633674 0.10815891556107478 0.11442888979005635 0.11096022359603384 0.096909777864437913 0.11536844374227354 0.10533328789954247 0.11016942145254185 0.11360647272671479 0.10349220546436516 0.1079954974779722 0.11198731776410627 0.10764182372775484 0.11072029704795293 0.10635361683153913 -0.05985894644625727 -0.059780871072650621 -0.062287950644514561 0.11320992459576092 -0.06284320667978667 -0.060009071437933638 -0.05728233188884313 -0.059479594423958164 -0.059121896599532188 -0.056854499587864149 -0.059053230544388741 -0.058567079459107121 -0.061122299090172319 -0.056339562672594802 -0.058218404709524045 -0.064345770929428892 -0.057246796044491635 -0.057098781780177743 -0.056822321268014148 -0.057541657921097972 -0.057032406690424753 -0.057477528845356812 -0.057748188362774691 -0.057629110097549618 -0.058839969640257284 -0.057655274280136351 -0.056365021040257514 -0.056792691573032385 -0.056451760874621851 -0.056409594793413953 -0.057300494390206971 -0.057955627464779502 -0.05721726112240514 -0.058315940908739032 -0.056453253639420165 -0.05681975663766764 -0.057259663799356098 -0.056690773824534149 -0.05654503387627427
leaf_weight=7.317659616470336 97.300115048885345 10.574729025363924 62.361022308468819 5.8953469544649186 7.5507177710533133 10.912238985300062 5.7903222739696494 72.862507209181786 71.323506712913513 54.351485013961792 87.332725957036018 100.4006709009409 53.191761061549187 83.612902820110321 60.10912649333477 90.783439770340919 57.849515318870544 46.416626751422882 72.090925708413124 75.355751514434814 67.247300788760185 119.18133690953255 66.007869154214859 6.8664479404687873 6.7298425436019889 14.109946623444559 61.608640193939209 9.5532271414995211 6.8419655263423902 10.644103921949863 10.821753002703192 8.9404537901282293 12.367187030613428 9.8815626949071866 6.3033764064312008 7.9828364178538314 138.4959683790803 7.5504556074738503 10.897895663976668 6.021145097911357 6.6060743778944007 10.316011779010298 7.5002532675862303 6.3349652364850035 11.611952997744085 5.7488010227680268 9.4967294409871084 6.6700243800878507 9.0849183052778226 70.467637114226818 26.865636713802814 21.016550429165363 21.52122446894646 5.5665454193949691 8.6647783294320089 5.5353901684284201 6.2700846865773201 16.175388216972351 6.9464897140860531 5.701948106288909 5.3898268565535536 13.357299827039245
leaf_count=30 98 99 63 55 22 98 44 73 58 49 72 82 65 70 56 75 47 44 65 61 61 98 59 52 52 90 50 59 50 97 82 71 117 77 51 54 1388 63 63 55 62 98 67 59 103 50 83 53 80 704 256 208 214 51 74 51 52 160 66 52 52 131
internal_value=0.0607969 -0.0544352 0.110936 -0.0555466 -0.0387845 -0.0570385 -0.0426418 0.109927 0.109578 0.109951 0.109696 0.108437 0.102595 0.110841 0.110197 0.112662 0.108818 0.10965 0.108469 0.110036 0.109954 0.110401 0.109133 -0.057478 -0.0581275 -0.0602547 0.111569 -0.0622747 -0.0571336 -0.0569969 -0.0587513 -0.0610599 -0.0568971 -0.0573485 -0.0580751 -0.0601769 -0.0565148 -0.0590697 -0.0636439 -0.057618 -0.0565709 -0.0564595 -0.0568054 -0.0577264 -0.0578918 -0.0579438 -0.0580927 -0.0583283 -0.0572075 -0.0565104 -0.0564775 -0.056643 -0.0563907 -0.0565927 -0.0576818 -0.0568176 -0.0585861 -0.056597 -0.0567332 -0.0569824 -0.0563527 -0.056639
internal_weight=2008.28 608.898 1399.39 601.58 49.1668 552.413 16.3651 1302.09 1239.73 1166.86 1095.54 521.989 107.543 573.551 486.218 174.396 311.822 251.713 193.863 147.447 414.446 347.199 166.409 536.048 320.171 101.951 180.79 43.5015 218.22 203.827 58.4495 23.0504 196.961 41.6161 39.6449 18.8046 215.877 14.3924 20.4511 61.3608 135.6 204.965 33.9917 32.9151 26.5801 34.2068 28.1856 18.6889 27.1541 124.956 118.35 47.8822 170.974 27.0878 20.2767 31.7345 12.9401 26.4914 26.1991 18.0691 143.886 20.3038
internal_count=6741 5495 1246 5465 402 5063 143 1148 1085 1012 954 464 114 490 418 145 273 217 170 126 350 289 141 4920 2792 758 148 283 2034 1921 475 161 1869 380 339 136 2128 113 122 542 1327 2030 325 287 228 293 238 155 249 1230 1168 464 1705 265 177 303 105 258 252 169 1440 197
cat_boundaries=0 1 2 3
cat_threshold=2 1 1
is_linear=0
shrinkage=0.05


Tree=9
num_leaves=63
num_cat=1
split_feature=0 13 39 39 12 5 0 19 40 39 39 5 12 12 0 12 5 0 39 3 40 12 39 0 0 12 40 11 39 3 12 4 11 13 4 4 4 40 13 39 17 39 3 52 39 12 40 13 33 0 2 39 0 38 13 3 39 39 39 5 13 0
split_gain=4115.78 24.6146 6.39362 5.87173 29.2388 1.44569 2.74731 1.01146 1.82715 1.75468 0.721462 0.872441 0.502666 0.445893 0.404499 0.404075 0.38719 0.335526 0.298203 0.143452 0.121133 0.23768 0.107261 0.039872 0.02668 0.0232328 0.0214335 0.0191763 0.0172911 0.0151868 0.0150672 0.0143451 0.0108454 0.00838905 0.006682 0.00578675 0.00542403 0.00450568 0.00416726 0.0035991 0.00263896 0.002412 0.00201343 0.00179298 0.00151797 0.00545853 0.00138002 0.00109161 0.000977741 0.000732693 0.000699946 0.00100209 0.000767154 0.000674122 0.000768757 0.000541959 0.000341192 0.000509224 0.000313937 0.000291742 0.000177049 0.000165618
threshold=0.026832412928342823 42.500000000000007 0.00091891263308507116 0.0094482664938442228 1.5000000000000002 37090.095000000008 0.0011991988867521288 1.0000000180025095e-35 0.08238370527335144 0.0094482664938442228 0.0057137069462654582 97251.195000000022 1.5000000000000002 5.5000000000000009 1.0032038092613222 2.5000000000000004 76116.48000000001 1.0012857913970949 0.0062720250012240847 34.500000000000007 0.0097788965295874577 1.5000000000000002 0.00091891263308507116 1.0032038092613222 0.99975204467773449 2.5000000000000004 0.39869651265430256 1.0000000180025095e-35 0.0042461669187371818 48.500000000000007 3.5000000000000004 26.500000000000004 1.0000000180025095e-35 4473.5000000000009 6.5000000000000009 4.5000000000000009 79.500000000000014 0.044502870815674805 131.50000000000003 0.0042461669187371818 1.0000000180025095e-35 0.00091891263308507116 26.500000000000004 0 0.0002279430365973745 1.5000000000000002 0.049316323900637074 541.00000000000011 1.0000000180025095e-35 0.000335154589265585 1.0000000180025095e-35 0.00047339726675770227 0.00037986226379871374 1.0000000180025095e-35 4159.0000000000009 52.500000000000007 0.0057137069462654582 0.00091891263308507116 0.0057137069462654582 119872.65000000001 5006.0000000000009 0.00088836136274039756
decision_type=2 2 2 2 2 2 2 2 2 2 2 2 2 2 2 2 2 2 2 2 2 2 2 2 2 2 2 2 2 2 2 2 2 2 2 2 2 2 2 2 2 2 2 9 2 2 2 2 2 2 2 2 2 2 2 2 2 2 2 2 2 2
left_child=1 -1 -2 5 32 6 -3 10 13 -10 11 -4 -13 18 24 16 -12 -17 -9 -18 38 26 30 -19 -14 28 27 35 -24 33 31 -23 47 -15 -29 -22 -28 -32 -7 -27 41 -36 49 -37 48 -46 53 -5 -40 -42 51 -45 -53 54 -33 -49 57 -44 -51 -56 -50 -52
right_child=2 3 7 4 -6 20 -8 8 9 -11 15 12 14 29 -16 17 19 23 -20 -21 21 22 25 -25 -26 39 36 34 -30 -31 37 46 -34 -35 40 43 -38 -39 44 -41 42 -43 56 50 45 -47 -48 55 60 58 61 52 -54 -55 59 -57 -58 -59 -60 -61 -62 -63
leaf_value=0.038064606120738573 0.11699350471130286 -0.056448125134899829 0.10178203829619586 -0.057114612311632132 0.044245159038274633 -0.057304544634046467 -0.0123182693637428 0.099594712394713042 0.089254578143613816 0.10124033134094251 0.09680583818462396 0.11065142959838066 0.10649260132724243 0.10496559418074135 0.10252601589456155 0.1018399409651608 0.10414026896183155 0.10482043779416979 0.10353087802646886 0.1007750540377276 -0.057804956524223822 -0.059900262319619896 -0.059221654317076801 0.10645259149582245 0.10785583654157194 -0.062098337052570562 -0.059655788842409768 -0.058771317970569371 -0.06203321433214435 0.10550526821251678 -0.058860567193706671 -0.057731491989602451 -0.058441323763843568 0.10415429534193277 -0.057064926214465919 -0.056028869095561963 -0.057688792321565402 -0.060479491874294883 -0.056018423139116147 -0.06343740605750206 -0.056058919526210685 -0.058413735674910899 -0.057074722270571615 -0.056052106087944004 -0.056072264830058574 -0.057695804441923397 -0.057849490729117985 -0.056212407580149483 -0.056302406470677281 -0.056994204125915771 -0.056208235969832793 -0.05650740114449631 -0.05713231372074426 -0.056641342244050576 -0.057301040318893097 -0.056790850304964183 -0.056994157865488976 -0.057672835691044803 -0.056519619284721691 -0.056799495842089189 -0.056666964548136106 -0.056493693271120873
leaf_weight=7.1750629246234885 89.667400851845741 10.611015647649763 98.928274437785149 5.6409011930227306 8.7545552849769575 7.5993869081139556 5.282602220773696 101.20401687920094 52.623049035668373 72.750532403588295 42.037775486707687 77.993941783905029 57.788033470511436 63.602038025856018 61.152049377560616 96.470130458474159 59.207743048667908 76.274918362498283 91.73202295601368 68.083232492208481 5.9708743765950194 6.5369197353720656 11.921019196510317 73.452160716056824 94.718172743916512 8.9018041044473666 6.8272409513592702 7.3417289182543746 10.10300739109516 63.569636106491089 10.566921040415766 6.092379264533526 9.4191779196262342 63.851724863052368 6.3111802339553815 64.920491524040699 7.2016748487949371 7.2441751286387435 155.62510534375906 11.501240462064741 4.9052386879920986 6.9804887622594833 6.0293242707848576 6.3458512276411083 22.650947235524658 6.7110180631279936 9.2374435737729055 18.334036588668827 7.6386549323797208 7.3496021032333356 28.697191223502159 11.563339583575727 8.536968991160391 5.4655478969216338 5.530812241137026 5.1972412765026084 6.5603389590978614 8.6841924563050252 6.6263113766908646 6.0944512188434601 5.9049753621220589 6.1744459122419348
leaf_count=28 90 106 92 53 27 70 39 90 61 64 42 74 49 51 54 83 51 62 76 63 53 50 94 59 78 57 51 60 65 51 84 53 77 52 59 677 63 51 1625 69 51 57 56 66 235 59 80 187 77 69 293 114 79 53 50 50 61 76 65 58 57 61
internal_value=0.0577417 -0.0539726 0.104075 -0.0551199 -0.0382516 -0.0566318 -0.0417806 0.103195 0.10145 0.0962096 0.104297 0.10584 0.107216 0.103162 0.105962 0.102846 0.100966 0.10414 0.101466 0.10234 -0.0570925 -0.0577233 -0.0597357 0.105621 0.107339 -0.0616375 -0.0567591 -0.0566219 -0.0605114 0.104874 -0.0583143 -0.0577635 -0.0569662 0.104559 -0.0573569 -0.0562839 -0.058646 -0.059519 -0.0561555 -0.0628532 -0.0571626 -0.0577733 -0.0569605 -0.056212 -0.0561115 -0.0564433 -0.0573327 -0.0564899 -0.0560539 -0.0565847 -0.0564059 -0.0565999 -0.0567728 -0.0571268 -0.0572765 -0.0563402 -0.057294 -0.0574277 -0.0567692 -0.0570381 -0.0564614 -0.0562588
internal_weight=1987.87 582.767 1405.11 575.592 47.3459 528.246 15.8936 1315.44 509.333 125.374 806.106 390.58 291.652 383.959 213.658 415.526 169.329 246.197 192.936 127.291 512.352 306.222 99.1957 149.727 152.506 42.4271 207.026 192.998 22.024 191.023 56.7687 38.9576 38.5914 127.454 60.7884 132.209 14.0289 17.8111 206.13 20.403 53.4467 13.2917 40.155 126.238 198.531 29.362 32.4206 29.1722 169.169 18.8812 61.3178 26.4462 20.1003 23.1832 17.7176 23.5313 21.2739 14.7135 13.9759 11.6253 13.5436 34.8716
internal_count=6707 5465 1242 5437 394 5043 145 1152 445 125 707 347 255 320 181 360 156 204 166 114 4898 2775 764 121 127 285 2011 1897 159 154 479 344 367 103 554 1343 114 135 2123 126 494 116 378 1290 2053 294 294 290 1759 185 613 259 193 214 161 237 193 132 134 108 134 354
cat_boundaries=0 1
cat_threshold=4
is_linear=0
shrinkage=0.05


Tree=10
num_leaves=63
num_cat=7
split_feature=12 39 53 39 52 11 7 39 13 49 12 14 13 38 13 22 5 12 3 39 22 12 39 39 46 17 2 39 3 5 13 13 3 12 19 32 3 12 13 12 13 13 5 39 12 27 14 46 39 11 7 52 39 39 52 3 13 3 39 33 40 10
split_gain=1288.43 619.424 440.457 135.582 52.2442 33.213 34.0215 23.4758 22.7709 16.4761 14.941 15.9504 14.3338 14.2552 8.47414 7.81191 7.46565 6.48821 5.23898 4.56214 4.24668 7.49989 4.21839 13.1873 12.4472 16.1648 8.61589 3.85377 6.83873 3.3424 3.14363 2.99633 2.75489 4.64172 2.60739 2.70323 2.08798 2.02023 1.67986 1.13896 1.26119 1.0156 0.828777 0.514263 0.410024 0.361515 0.115021 0.0910128 0.0354689 0.0222243 0.00933413 0.00751492 0.00550198 0.00196847 0.00128579 0.00118641 0.000986215 0.000593023 0.000926862 0.000529972 0.000236744 0.000187426
threshold=1.5000000000000002 0.00065581970067079783 0 0.00012262085783767024 1 1.0000000180025095e-35 1.0000000180025095e-35 0.0015441302479176982 200.50000000000003 2 6.5000000000000009 8.5000000000000018 1584.5000000000002 1.0000000180025095e-35 4291.5000000000009 1.0000000180025095e-35 120641.70000000003 2.5000000000000004 52.500000000000007 0.0057137069462654582 1.0000000180025095e-35 4.5000000000000009 0.0057137069462654582 0.00065581970067079783 3 1.0000000180025095e-35 1.0000000180025095e-35 0.0015441302479176982 27.500000000000004 212120.10000000003 6278.0000000000009 5802.5000000000009 38.500000000000007 2.5000000000000004 1.0000000180025095e-35 1.0000000180025095e-35 20.500000000000004 2.5000000000000004 1878.5000000000002 4.5000000000000009 1133.5000000000002 4913.0000000000009 105617.55000000002 0.0094482664938442228 3.5000000000000004 1.0000000180025095e-35 4.5000000000000009 4 0.0094482664938442228 1.0000000180025095e-35 1.0000000180025095e-35 5 0.00035375161170985418 0.0015441302479176982 6 39.500000000000007 349.50000000000006 22.500000000000004 0.0094482664938442228 1.0000000180025095e-35 0.014397516334713376 29.500000000000004
decision_type=2 2 1 2 9 2 2 2 2 9 2 2 2 2 2 2 2 2 2 2 2 2 2 2 9 2 2 2 2 2 2 2 2 2 2 2 2 2 2 2 2 2 2 2 2 2 2 9 2 2 2 9 2 2 9 2 2 2 2 2 2 2
left_child=2 3 5 30 -4 6 12 17 -5 16 11 13 -1 15 -15 38 -6 -3 -13 20 34 -22 23 36 25 -25 53 28 -26 54 56 47 43 -34 37 -36 -11 -9 -10 40 -35 -42 -39 44 -21 -41 -45 48 51 57 52 -24 60 -27 55 -29 -2 58 -49 -58 -38 -57
right_child=1 7 4 8 9 -7 -8 19 10 22 -12 18 -14 14 -16 -17 -18 -19 -20 32 21 -23 31 24 27 26 -28 29 -30 -31 -32 -33 33 39 35 -37 50 42 -40 45 41 -43 -44 46 -46 -47 -48 49 -50 -51 -52 -53 -54 -55 -56 61 59 -59 -60 -61 -62 -63
leaf_value=0.037511382721360391 -0.056455641034817296 0.042381995901245986 0.070809741996805939 0.087668675673199858 -0.014014618347867717 0.094158627097840675 0.097341254025174587 0.087625607689822305 0.067737975211703355 -0.03092479224912428 0.064637853478137455 -0.057545277066601175 -0.039332271715546943 -0.039019001768494689 0.023717051149354396 0.011385533709510981 0.046258908114858381 0.07449527746320049 0.0001175466308708323 0.093998477251780108 0.063006527545870036 0.092217342553095882 -0.057057912069124445 0.033920548935105363 -0.055706022285056833 -0.05613083528398051 0.00048651026114167654 -0.056978470854995279 -0.0010296908384699729 -0.013109793966972233 -0.017736280305158683 -0.02064484566494907 0.081185427187405207 0.099597190797960478 0.077913077907183936 0.094521681824286774 -0.055687678746379525 0.10109675082137858 0.044134855512526376 0.099456769352802038 0.084979082857635807 0.094141376135495905 0.093615682554145943 0.10242017394156296 0.098925146948362325 0.095167239537122916 0.099692883171006455 -0.055802794341651675 -0.061777003969936628 -0.058727698280209496 -0.057906623045497541 -0.059104407032734944 -0.057374419005976895 -0.057283013836133323 -0.055774094108534192 -0.056219055398189159 -0.055679626067788084 -0.055750036560546404 -0.056683587815665348 -0.056062082510075842 -0.055959398008643163 -0.055828791771608259
leaf_weight=12.760609798133375 5.1302124112844458 24.067452169954777 10.221607983112335 15.399029202759264 14.045648306608202 74.678353995084763 14.683471783995627 68.828169874846935 13.564161889255049 9.0083648860454542 17.355008870363235 8.6938580423593503 11.571637667715548 11.381407894194128 10.212709061801432 15.882624000310896 8.1004698872566205 45.39729517698288 7.2024111002683631 66.336984261870384 39.244914166629314 49.931422427296638 9.0288593769073486 14.379559293389319 10.730996549129488 6.5732296705245963 11.638785816729069 5.0728221461176899 12.244540125131605 5.0770756751298896 5.848364755511283 5.9990185946226111 70.687481835484505 41.401582807302475 57.379422634840012 42.754395894706249 101.22840232402086 88.053415194153786 16.968647487461567 118.89376655220985 61.469856485724449 59.541383624076843 63.878199830651283 77.156333714723587 116.22337603569031 83.696353733539581 77.481209993362427 8.1565889045596105 10.115914151072504 7.2360179871320716 5.4250250905752173 8.9151911661028862 5.1947671845555297 8.5017408058047295 24.336759179830551 8.7178858742117864 59.763404875993729 57.825402781367302 4.7124114707112303 10.676013901829718 8.7057779207825643 4.7541872560977927
leaf_count=45 54 83 31 22 94 91 19 96 38 81 53 80 92 93 47 99 31 84 42 67 94 51 85 69 117 69 76 50 92 41 50 48 101 34 77 41 1105 76 75 96 72 56 63 63 93 78 62 88 78 65 49 82 50 79 263 89 653 626 48 111 92 51
internal_value=0.0547714 0.0786241 -0.014475 -0.00353623 -0.0396941 0.0685922 0.0372372 0.0916183 0.0310221 -0.0437568 0.0224077 0.0136728 0.000967002 0.0242124 -0.00934865 0.0398262 0.00553331 0.063369 -0.0314189 0.0932771 0.0890143 0.0793622 -0.0457078 -0.0432822 -0.0307194 -0.00882239 -0.0318302 -0.0434047 -0.0265669 -0.0514712 -0.0530532 -0.0550219 0.0955388 0.0929127 0.0916966 0.0850045 -0.0541447 0.094732 0.0546205 0.0951838 0.0920644 0.0894872 0.0979514 0.0989321 0.0971349 0.0976846 0.101054 -0.0569677 -0.0594094 -0.0560885 -0.0558798 -0.0580747 -0.0557843 -0.0567806 -0.0560131 -0.0563267 -0.0557863 -0.0558184 -0.0561253 -0.0557376 -0.0557092 -0.0560813
internal_weight=1950.14 1450.5 499.641 198.078 385.947 113.694 39.0157 1252.42 116.66 375.725 101.261 83.9058 24.3322 68.0096 21.5941 46.4154 22.1461 69.4647 15.8963 1182.96 410.07 89.1763 353.579 241.59 112.028 41.0933 26.7138 70.9343 22.9755 47.9587 81.418 111.989 772.888 435.69 320.894 100.134 129.562 220.76 30.5328 365.003 162.413 121.011 151.932 337.198 182.56 202.59 154.638 105.99 28.06 77.9304 120.554 17.9441 115.129 15.075 42.8817 18.5449 75.5696 70.6944 12.869 70.4394 109.934 13.4721
internal_count=6700 2804 3896 1417 3649 247 156 1387 549 3618 527 474 137 352 140 212 125 167 122 1220 498 145 3493 2373 996 293 224 703 209 494 868 1120 722 437 353 118 1377 235 113 336 162 128 139 285 160 174 125 1072 245 827 1296 167 1247 148 453 190 818 762 136 764 1197 140
cat_boundaries=0 1 2 6 7 8 9 10
cat_threshold=1028 1 8 0 16777216 143654912 1 1 2 2
is_linear=0
shrinkage=0.05


Tree=11
num_leaves=63
num_cat=6
split_feature=12 53 40 40 49 53 11 7 11 53 52 5 2 13 5 5 33 38 32 13 40 13 5 5 13 10 34 13 5 40 12 40 13 13 13 5 5 13 5 5 10 5 13 12 22 5 13 12 52 5 13 13 13 40 19 13 5 13 5 40 1 13
split_gain=1187.21 513.118 375.147 61.5548 47.6504 42.9204 33.473 21.9975 21.3621 48.2509 16.1824 14.4854 14.0411 15.071 13.3622 12.5667 11.0691 9.73896 18.9334 15.6421 9.5175 8.26748 7.89401 6.45385 4.91378 4.84318 3.44305 3.09535 2.9813 2.8777 5.36757 38.6169 14.7949 2.36289 1.93834 1.66399 1.55075 1.38181 1.25514 3.20268 2.33977 4.88146 0.948638 1.42845 0.572624 0.430872 0.297098 0.167709 0.14876 0.138624 0.135058 0.0902253 0.0306602 0.0108634 0.00646805 0.00539433 0.00643485 0.00326254 0.00318712 0.00385858 0.00387872 0.00232513
threshold=1.5000000000000002 0 0.39869651265430256 0.045069519438444929 1 2 1.0000000180025095e-35 1.0000000180025095e-35 1.0000000180025095e-35 3 4 155059.21500000003 1.0000000180025095e-35 2067.0000000000005 108452.61000000002 132890.46000000002 1.0000000180025095e-35 1.0000000180025095e-35 1.0000000180025095e-35 3638.0000000000005 0.035254792966688618 1042.5000000000002 141376.99500000002 122423.62500000001 5122.5000000000009 32.500000000000007 1.0000000180025095e-35 6278.0000000000009 101796.22500000002 0.39869651265430256 2.5000000000000004 0.10625452230824055 1366.5000000000002 71.500000000000014 2067.0000000000005 101796.22500000002 118302.70500000002 4762.0000000000009 95851.140000000014 92874.690000000017 15.500000000000002 67429.72500000002 1024.5000000000002 4.5000000000000009 1.0000000180025095e-35 127089.42 3158.0000000000005 5.5000000000000009 5 73092.015000000029 1325.5000000000002 5052.5000000000009 3118.5000000000005 0.0097788965295874577 1.0000000180025095e-35 1478.0000000000002 103615.68000000001 3007.0000000000005 133762.20000000004 0.035254792966688618 1.0000000180025095e-35 2004.0000000000002
decision_type=2 1 2 2 9 1 2 2 2 1 9 2 2 2 2 2 2 2 2 2 2 2 2 2 2 2 2 2 2 2 2 2 2 2 2 2 2 2 2 2 2 2 2 2 2 2 2 2 9 2 2 2 2 2 2 2 2 2 2 2 2 2
left_child=2 3 4 17 23 11 7 14 33 10 25 15 13 -5 -4 16 21 19 20 -2 -19 -3 -21 28 35 -10 29 -7 -1 30 31 32 -14 -6 -12 -23 -36 -13 39 40 41 -35 49 44 45 46 -44 -45 -33 -32 -31 52 -49 -11 -51 -55 -57 -40 -59 -60 -61 -42
right_child=1 5 6 12 8 27 -8 -9 9 53 34 37 26 -15 -16 -17 -18 18 -20 22 -22 24 -24 -25 -26 -27 -28 -29 -30 50 42 48 -34 38 36 -37 -38 -39 57 -41 61 -43 43 47 -46 -47 -48 51 -50 54 -52 -53 -54 55 -56 56 -58 58 59 60 -62 -63
leaf_value=-0.01388707311859342 0.078575335831965853 0.033241017015216159 -0.040859288972519815 0.087020133924690074 -0.019653955055372929 -0.055439890963090092 0.093268482073325915 0.081158422620338566 -0.0063060548713686068 -0.055530584573919461 0.047061521636719714 -0.022761946493283062 0.06880120209618644 0.033596463799500868 0.03913921336691574 0.068392597442287192 0.050021644226706241 -0.036929372567048167 0.069073110332394633 -0.0030468119359515194 0.0293384049601727 -0.058187790137922892 0.054068132295947958 0.053600313112068303 0.010282780940478339 -0.059442553160944794 0.078387681195717637 -0.017245707137810845 0.02189334530325697 0.083928006546951969 0.097432871701192095 0.096375010277772177 0.010229273055923836 -0.055501872588900353 0.011641338533624668 -0.022619595682182188 0.039159217755827369 -0.056980157813109833 -0.055470853802393152 -0.0087372918284164235 -0.055537063092606212 -0.010935557878913003 0.089643284232779216 0.091963697037053788 0.08463556829633373 0.087028591461865007 0.094352205405556069 0.092666954323036482 0.093269867701471734 0.094905586744947618 0.079879059306741343 0.095559151217504162 0.094168032638593885 -0.056197204070808186 0.094220997623306171 -0.058555853707727368 -0.056539895551363434 -0.055615733370711365 -0.05532546205181163 -0.055877342609904318 -0.05768248282678138 -0.056225876200421333
leaf_weight=9.3418159857392329 40.370878741145134 8.6899359077215212 10.197255149483683 29.369218021631241 5.603192761540412 61.97087524831295 65.171139389276505 13.959232598543165 13.352367751300337 36.719008013606071 14.680443562567232 6.3470120131969434 23.081628546118736 23.980196565389633 10.69373909384012 11.61859632283449 11.852181948721407 10.5426424741745 15.810423858463762 11.186303198337557 11.147160947322845 7.5050021335482615 13.175099961459635 11.597053937613962 6.5436004325747481 6.3171356469392768 69.001833885908127 5.801215134561061 15.450316302478312 31.947031244635582 62.066112339496613 59.681357860565186 20.231250137090683 15.313639968633654 12.017424605786802 5.852527879178524 8.9200057387351972 5.5130660533905029 92.158448413014412 4.9193482697010031 41.266605027019978 10.261712476611136 74.776054963469505 101.90627913177013 63.001380354166031 74.989110857248306 60.676840052008629 55.556591019034386 109.04676634073257 74.970617428421974 57.964318603277206 97.268954992294312 87.745425581932068 19.411032475531101 63.919626817107201 7.1296512708067921 8.899145267903803 22.144711673259735 4.8707763999700573 4.8555819392204294 7.6867652311921093 17.424343124032021
leaf_count=62 81 36 75 34 35 705 68 18 97 412 59 47 39 92 43 34 44 87 35 69 39 70 47 41 40 56 94 50 70 33 50 48 92 172 62 47 38 53 1040 44 465 92 70 92 71 75 53 48 95 61 68 78 73 203 53 68 88 245 56 52 77 189
internal_value=0.0531209 0.0755259 -0.0142782 0.0844004 -0.0364161 -0.0199003 0.0721167 0.0325622 -0.0413374 -0.0261297 0.0110339 0.00968526 0.0881003 0.0630066 9.05625e-05 0.0225608 0.00939423 0.0477364 0.0274607 0.0594823 -0.00287201 -0.00744752 0.027842 0.017895 -0.0252144 -0.0233716 0.0892274 -0.0454624 0.00841108 0.0898959 0.0906455 0.0835573 0.0414425 -0.0517192 0.0331318 -0.0426038 0.0233648 -0.038668 -0.0525326 -0.0479523 -0.0502417 -0.0376203 0.0924854 0.0915121 0.0888174 0.0900693 0.0917527 0.0936637 0.0943682 0.0954684 0.0813177 0.0943838 0.0935861 -0.049301 0.0945905 -0.0567578 -0.0574366 -0.0556339 -0.0560137 -0.0565198 -0.0569836 -0.0557416
internal_weight=1965.47 1475.11 490.362 1343.41 390.341 131.694 100.021 34.8502 353.951 127.446 55.2874 63.9219 1241.18 53.3494 20.891 52.0618 40.4432 102.233 37.5002 64.7323 21.6898 28.5911 24.3614 36.3892 19.9011 19.6695 1187.83 67.7721 24.7921 1118.83 1028.92 212.041 43.3129 226.505 35.6179 13.3575 20.9374 11.8601 220.902 89.1856 84.2663 25.5754 816.877 615.921 273.443 210.442 135.453 342.477 168.728 200.956 89.9113 240.571 143.302 72.1588 138.89 35.4398 16.0288 131.716 39.5578 17.4131 12.5423 58.6909
internal_count=6730 2803 3927 1677 3723 1126 204 136 3550 1083 312 371 1319 126 118 271 237 358 161 197 126 193 116 173 157 153 1193 755 132 1099 998 274 131 2467 159 117 100 100 2432 962 918 264 724 560 269 198 123 291 143 164 101 199 121 771 114 359 156 1470 430 185 129 654
cat_boundaries=0 1 5 6 7 8 9
cat_threshold=3781972 8 0 16777216 13697024 4196992 3150864 4 4
is_linear=0
shrinkage=0.05


Tree=12
num_leaves=63
num_cat=6
split_feature=12 39 53 39 4 11 52 39 4 49 38 12 12 4 3 4 33 3 13 13 4 12 11 40 17 40 39 12 13 40 3 44 4 44 34 40 4 12 3 10 10 3 13 26 45 13 12 4 3 3 4 38 17 39 33 12 40 3 4 40 7 17
split_gain=1033.38 487.909 342.55 90.3025 39.3824 44.7471 29.5029 25.3874 19.3939 16.1915 12.2253 18.6123 16.6717 13.556 11.8265 12.8585 8.15169 8.02251 7.9671 7.74231 7.47911 8.64119 7.2463 18.7668 16.209 7.23785 5.37517 9.80808 18.4007 4.59247 4.39945 3.6006 3.59407 3.46071 3.16361 2.43823 2.04797 1.7094 3.03842 1.02147 1.85654 4.66347 0.908282 0.600002 0.408558 0.235688 0.311055 0.159054 0.317651 0.100661 0.0901701 0.0509874 0.0214395 0.0282589 0.0153748 0.0111193 0.0044522 0.00525976 0.00414463 0.0028691 0.00160987 0.00120588
threshold=1.5000000000000002 0.00065581970067079783 0 0.00012262085783767024 5.5000000000000009 1.0000000180025095e-35 1 0.0015441302479176982 5.5000000000000009 2 1.0000000180025095e-35 7.5000000000000009 2.5000000000000004 157.50000000000003 20.500000000000004 108.50000000000001 1.0000000180025095e-35 41.500000000000007 5052.5000000000009 2562.5000000000005 39.500000000000007 3.5000000000000004 1.0000000180025095e-35 0.070777821716328196 1.0000000180025095e-35 0.08238370527335144 0.0042461669187371818 3.5000000000000004 1325.5000000000002 0.070777821716328196 76.500000000000014 3 175.50000000000003 4 1.0000000180025095e-35 0.39869651265430256 24.500000000000004 2.5000000000000004 38.500000000000007 15.500000000000002 9.5000000000000018 27.500000000000004 1797.0000000000002 1.0000000180025095e-35 5 1024.5000000000002 5.5000000000000009 42.500000000000007 46.500000000000007 39.500000000000007 149.50000000000003 1.0000000180025095e-35 1.0000000180025095e-35 0.0002279430365973745 1.0000000180025095e-35 3.5000000000000004 0.044502870815674805 26.500000000000004 7.5000000000000009 0.08238370527335144 1.0000000180025095e-35 1.0000000180025095e-35
decision_type=2 2 1 2 2 2 9 2 2 9 2 2 2 2 2 2 2 2 2 2 2 2 2 2 2 2 2 2 2 2 2 9 2 9 2 2 2 2 2 2 2 2 2 2 9 2 2 2 2 2 2 2 2 2 2 2 2 2 2 2 2 2
left_child=2 3 4 16 -1 31 -4 20 -5 19 12 13 17 55 15 29 30 -10 -19 -8 -3 -22 39 32 -25 -26 27 28 -9 60 -2 -6 52 -18 35 37 -27 38 44 40 -16 -42 -40 45 -28 51 47 -47 49 -49 -50 -39 53 -24 -48 -12 -54 -58 -41 -60 -11 -61
right_child=1 7 6 8 5 -7 9 26 10 14 11 -13 -14 -15 22 -17 33 18 -20 -21 21 -23 23 24 25 36 34 -29 -30 -31 -32 -33 -34 -35 -36 -37 -38 43 42 58 41 -43 -44 -45 -46 46 54 48 50 -51 -52 -53 56 -55 -56 -57 57 -59 59 61 -62 -63
leaf_value=0.090082036592804074 -0.055182138229439348 0.073869178338515279 0.060488874307632216 0.081324324519892341 -0.0024133525568894986 0.064342472331075623 -0.01326823186889454 0.084099336486941456 0.037801971916876995 -0.055435401077435158 -0.056395350428447011 0.058088929631783137 0.059740885447207751 0.014481455037250825 -0.055275390919898283 0.050279013240874207 0.018749885144637688 -0.038904203544351694 0.026297828290653753 0.04823748366794655 0.012071533712007164 0.059681893259755973 -0.055390741600379226 0.058500492653366931 0.0083891958645956523 -0.02255949848916276 0.085197759873077414 0.086321084511412349 0.027039419077066165 -0.0056029833833680966 -0.0028946374575043628 -0.042053407934960756 -0.010368942851684805 -0.030312696436145203 0.075183138900073956 0.078660262131031666 -0.058397037321908069 0.091485176346083955 0.081076430647361808 -0.056745129390355656 -0.055102362456034386 -0.011662493261262489 0.070400415096909266 0.084878224355454779 0.091128957498897045 0.084386850738023017 0.090720146696130322 0.087949654601481825 0.087538417752534473 0.090512314342068759 0.08462400015119137 0.089681520046357099 -0.055179532090587596 -0.060691403318242701 0.08972459223166207 -0.059151430585075715 -0.055407993492082898 -0.057029721421687607 -0.055159580140916389 -0.056232174562999684 -0.056722335761023403 -0.055516530814183
leaf_weight=58.814761206507683 59.529947601258755 24.225755974650383 7.2769809067249298 13.951788470149038 11.256305389106274 41.799581952393055 13.768907219171526 33.0196742862463 12.985264308750628 5.0136370286345535 8.4661701172590274 8.7386789843440038 28.460840292274952 11.601607799530028 33.155465841293335 6.2930038198828688 5.9979725331068021 11.74821934849024 7.7927931174635878 8.1422827839851362 17.221418440341949 21.34001137316227 4.8742217868566495 7.4562009423971167 10.277534186840059 6.4230775982141521 53.981844618916512 86.122103825211525 24.696567133069038 8.4063476026058179 4.3144977614283553 11.665285348892212 4.6551731675863257 8.9684937894344312 64.351446539163589 87.78273107111454 10.508496083319185 94.147601723670959 39.743917092680931 5.0058196708559981 15.112953782081606 10.450719766318796 39.946279272437096 97.896884694695473 62.824104756116867 34.830092772841454 91.827623397111893 66.823223918676376 47.039661318063736 89.834794417023659 60.89955797791481 67.114944592118263 27.959685020148754 5.1935379505157471 67.132862478494644 6.4458868429064742 10.857085905969145 9.2675366923212987 105.60409903526306 8.2974157109856623 4.715724989771843 20.258034326136112
leaf_count=57 705 36 24 19 70 99 86 36 54 57 87 25 90 59 386 30 43 97 43 37 80 44 56 24 66 49 52 88 94 57 38 90 38 88 85 98 96 76 43 53 180 95 64 95 57 33 75 59 42 75 60 56 330 47 56 53 124 94 1248 91 47 234
internal_value=0.0511879 0.0719656 -0.0130921 -0.00299648 0.0559393 0.0335556 -0.0380419 0.083097 0.026232 -0.0412536 0.0182453 -0.00519419 0.031794 -0.0260518 -0.0433806 -0.0113029 -0.0438629 0.00734013 -0.0129022 0.00658309 0.0520972 0.0384193 -0.0475025 -0.0363437 -0.00681242 -0.0247103 0.0847055 0.0756326 0.0596836 -0.0326715 -0.0516486 -0.022587 -0.0526429 -0.0106503 0.0859296 0.0866198 -0.0448019 0.0873843 0.0832523 -0.0529991 -0.0474687 -0.0373437 0.0757249 0.0885158 0.0883879 0.0890905 0.0885121 0.0875631 0.0879812 0.0894192 0.0858941 0.0907345 -0.056027 -0.0581251 0.0902997 -0.0575867 -0.0555877 -0.0561548 -0.0553325 -0.0552798 -0.0560592 -0.0557245
internal_weight=1934.32 1461.81 472.51 189.002 123.536 64.7212 348.974 1272.8 110.191 341.697 96.2395 35.2523 60.9871 26.5137 319.786 24.4287 78.8109 32.5263 19.541 21.9112 62.7872 38.5614 295.357 97.4725 34.6653 27.2091 1210.02 143.838 57.7162 18.1357 63.8444 22.9216 62.8072 14.9665 1066.18 1001.83 16.9316 914.043 196.496 197.885 58.7191 25.5637 79.6902 717.547 116.806 619.65 458.388 299.427 264.597 156.658 107.939 161.263 58.1521 10.0678 158.96 14.9121 48.0843 20.1246 139.165 134.16 9.72936 28.5555
internal_count=6670 2805 3865 1401 316 259 3549 1404 527 3525 508 224 284 199 3402 191 874 194 140 123 160 124 3211 924 235 211 1244 218 130 161 743 160 689 131 1026 941 145 843 216 2287 661 275 107 627 109 532 400 269 236 134 102 132 651 103 131 140 548 218 1626 1573 104 325
cat_boundaries=0 1 2 6 7 8 9
cat_threshold=1222 1 12 0 268435456 5242880 1 1 2
is_linear=0
shrinkage=0.05


Tree=13
num_leaves=63
num_cat=3
split_feature=0 4 39 39 12 19 40 39 5 0 39 0 12 0 12 12 39 12 14 5 0 5 39 39 0 40 12 4 0 11 39 4 12 12 11 39 3 3 40 38 4 0 39 0 4 52 4 52 33 14 39 2 3 0 4 39 4 4 4 46 10 4
split_gain=2996.52 11.5331 6.16646 5.54885 23.2912 1.60988 1.9967 2.61455 1.50697 2.78787 0.98982 0.617443 1.37034 0.670986 0.40126 0.33369 0.64908 0.272149 0.410109 0.261765 0.157205 0.116431 0.102356 0.0764881 0.0690489 0.043621 0.0364649 0.037659 0.0213087 0.0208902 0.0170505 0.0167251 0.0162255 0.0121036 0.0108357 0.00964515 0.00919984 0.00703768 0.00611009 0.00456568 0.00375618 0.00357081 0.00303618 0.00290585 0.0027315 0.00192929 0.00171469 0.00152219 0.00148156 0.00144095 0.00117318 0.0011954 0.000794125 0.000637953 0.000611276 0.000386031 0.000357805 0.00032267 0.000254226 0.000239092 0.000235364 0.000233867
threshold=0.026832412928342823 1.5000000000000002 0.00091891263308507116 0.0094482664938442228 1.5000000000000002 1.0000000180025095e-35 0.08238370527335144 0.0094482664938442228 37090.095000000008 0.0011991579085588457 0.0057137069462654582 0.99507519602775585 1.5000000000000002 1.0034712553024294 3.5000000000000004 1.5000000000000002 0.00065581970067079783 2.5000000000000004 5.5000000000000009 130686.55500000002 1.0012857913970949 175340.08500000002 0.00012262085783767024 0.0042461669187371818 1.0014596581459048 0.39869651265430256 2.5000000000000004 95.500000000000014 1.0032038092613222 1.0000000180025095e-35 0.00091891263308507116 19.500000000000004 3.5000000000000004 2.5000000000000004 1.0000000180025095e-35 0.0057137069462654582 42.500000000000007 45.500000000000007 0.014397516334713376 1.0000000180025095e-35 6.5000000000000009 0.0003607440739870072 0.00031001613069946854 0.00053088366985321056 5.5000000000000009 0 102.50000000000001 1 1.0000000180025095e-35 5.5000000000000009 0.00047339726675770227 1.0000000180025095e-35 55.500000000000007 0.00078180059790611278 96.500000000000014 0.00091891263308507116 15.500000000000002 124.50000000000001 159.50000000000003 2 18.500000000000004 195.50000000000003
decision_type=2 2 2 2 2 2 2 2 2 2 2 2 2 2 2 2 2 2 2 2 2 2 2 2 2 2 2 2 2 2 2 2 2 2 2 2 2 2 2 2 2 2 2 2 2 9 2 9 2 2 2 2 2 2 2 2 2 2 2 9 2 2
left_child=1 -1 -2 8 34 10 14 -8 9 55 11 -4 -13 19 -7 25 22 18 -12 -14 -19 24 48 26 36 29 27 -18 -22 44 40 -24 39 -25 52 41 -16 -27 -34 46 -31 -32 57 -44 -10 59 -33 -37 61 -43 -47 54 56 -48 -52 -3 -5 -42 -50 -46 -53 -17
right_child=2 3 5 4 -6 6 7 -9 15 -11 17 12 13 -15 21 16 23 20 -20 -21 28 -23 31 33 -26 37 -28 -29 -30 30 35 32 38 -35 -36 47 -38 -39 -40 -41 42 49 43 -45 45 50 53 -49 58 -51 51 60 -54 -55 -56 -57 -58 -59 -60 -61 -62 -63
leaf_value=-0.0054495754314257822 0.10020680434079805 -0.05506768399520167 0.084278690693795649 -0.055537071827540613 0.034712212290533472 0.082144919001899491 0.069805810656917752 0.084430931889883959 -0.056029343204539443 -0.0089868314462632215 0.081690662101168196 0.095718397040656947 0.08846115235955096 0.084449969818894868 0.087159389461480247 -0.054834671002719049 -0.062415073310575081 0.085268175413547864 0.086726937859377518 0.092432118582494338 0.087204246419420636 0.08451050663347226 -0.060275713260781794 -0.063810003124410514 0.085862191854767456 -0.059375524464118062 -0.063106065466082287 -0.057765228701087572 0.088401399839944883 -0.056603713750180355 -0.05669266189009653 -0.057880009000928392 -0.057647589384932189 -0.066129647830952168 -0.057282190540277327 -0.055364309316889987 0.087949482906615917 -0.057074739603698646 -0.059535647463968611 -0.055679798392078442 -0.054932877946242936 -0.057497586488248667 -0.055244640826974972 -0.056805485164756003 -0.055193678988895628 -0.054921409015481551 -0.056519552941314589 -0.056325209575210047 -0.055260748554825961 -0.058564346993755172 -0.056002093276995894 -0.055363118542773149 -0.055889269945661436 -0.057173254439995359 -0.055389461230947172 -0.055690559975674639 -0.055037780388399064 -0.055321698798008939 -0.055727935919501675 -0.054811936954507014 -0.055056402761499756 -0.055219491587225306
leaf_weight=12.291728615760801 81.887742191553116 5.4555527418851835 53.875992059707642 4.4940866380930009 8.9100793898105604 66.241268560290337 52.093648180365562 73.923990622162819 6.5191463083028784 4.7912658825516692 83.160703107714653 80.839649170637131 108.78076677024364 79.875964269042015 66.020456910133362 53.214551635086536 7.5082878321409252 103.31883503496647 78.653610929846764 67.100683331489563 73.791178464889526 62.230429768562317 6.4909268245100966 10.761240467429163 92.531715855002403 6.9708803519606573 14.297172069549559 10.366453006863592 74.89842700958252 5.6266296431422225 8.8341515734791773 6.1306655630469384 7.3305608332157162 11.778960779309271 8.8002322912216169 8.0212636664509773 83.369060873985291 6.3524877205491066 10.314206704497336 6.7226105481386176 28.991062566637993 6.699778884649275 6.8901423215866071 5.2570298984646797 4.3060729950666428 29.238783128559589 6.5976786762475959 8.4771853163838387 6.1831778138875944 6.0010555386543274 7.494007512927058 8.6699155643582362 4.1820141524076453 8.5935119986534101 8.9161102771759015 4.5721799358725548 17.801387846469879 6.5393624305725089 5.5039531588554382 86.424408875405788 22.452910900115967 4.2645327821373931
leaf_count=65 79 66 50 51 23 62 62 65 71 36 80 75 93 72 54 663 48 89 70 55 61 54 50 64 78 55 88 90 61 57 87 53 65 64 81 92 68 60 78 74 356 61 81 51 51 360 65 87 72 50 80 100 46 79 102 51 215 76 60 1080 271 50
internal_value=0.0482548 -0.0533128 0.0868986 -0.054458 -0.0375188 0.0860607 0.0838217 0.0783851 -0.056052 -0.040361 0.0874427 0.0892484 0.0900438 0.0882502 0.0856713 -0.0565633 -0.0582674 0.0857388 0.0841387 0.0899761 0.0867663 0.0864393 -0.0562289 -0.0627887 0.0869355 -0.0554868 -0.0612239 -0.0597184 0.0878073 -0.0553466 -0.055959 -0.0579008 -0.0575634 -0.0650222 -0.0557622 -0.0567677 0.0876003 -0.0582785 -0.0587512 -0.056816 -0.0553819 -0.0574647 -0.0552377 -0.0559201 -0.0550252 -0.0549861 -0.0571742 -0.055858 -0.0549676 -0.0580016 -0.0551706 -0.0553239 -0.055257 -0.0568893 -0.0556692 -0.0553517 -0.0551384 -0.0550044 -0.0554808 -0.0548301 -0.0551418 -0.0548632
internal_weight=1908.63 526.039 1382.59 513.748 44.1878 1300.71 496.411 126.018 469.56 14.819 804.296 390.473 336.597 255.757 370.393 454.741 176.058 413.823 161.814 175.881 252.008 304.152 121.346 54.7121 241.921 278.682 32.1719 17.8747 148.69 265.359 91.3377 52.1802 45.6892 22.5402 35.2777 38.0334 149.39 13.3234 17.6448 28.0445 53.3042 21.535 47.6776 12.1472 174.021 167.502 21.3219 16.4984 69.1662 12.7008 76.7717 47.5329 26.4775 15.1912 16.4101 10.0277 22.2955 35.5304 11.6871 90.7305 31.1228 57.4791
internal_count=6753 5525 1228 5460 416 1149 443 127 5044 153 706 345 295 220 316 4891 1663 361 150 148 211 254 1309 354 200 3228 226 138 122 3113 998 464 414 128 393 377 122 115 143 271 621 198 564 132 2115 2044 197 179 845 111 913 553 312 144 182 117 266 432 132 1131 371 713
cat_boundaries=0 1 2 3
cat_threshold=4 4 1
is_linear=0
shrinkage=0.05


Tree=14
num_leaves=63
num_cat=2
split_feature=12 39 53 39 4 4 13 11 3 4 12 39 12 4 38 40 44 6 6 40 11 17 14 26 40 13 3 4 4 12 13 39 6 4 6 6 3 12 40 39 39 6 13 40 13 6 4 4 12 39 12 4 14 6 14 6 13 3 17 1 3 17
split_gain=866.471 393.136 314.649 102.856 38.6578 29.1184 34.2584 25.0841 20.791 13.7342 23.4729 11.2076 18.2691 32.5491 10.7883 15.7246 8.48589 7.60168 6.52515 5.51143 14.8791 18.7748 6.18188 4.65229 7.41641 4.04321 3.59939 3.56381 3.37866 7.97984 3.0004 2.59721 1.77575 2.7467 1.74847 11.9311 1.52997 3.23723 6.97397 3.0626 1.50571 1.3929 3.05841 1.32074 1.00794 0.995664 0.700903 3.20397 0.552668 0.216327 0.294792 0.189066 0.125386 0.102865 0.211158 0.0127843 0.00986697 0.0248157 0.00695737 0.0148208 0.00467658 0.00391844
threshold=1.5000000000000002 0.00091891263308507116 0 0.00012262085783767024 13.500000000000002 10.500000000000002 321.50000000000006 1.0000000180025095e-35 33.500000000000007 121.50000000000001 3.5000000000000004 0.0042461669187371818 2.5000000000000004 15.500000000000002 1.0000000180025095e-35 0.044502870815674805 1 11.594077800633704 11.818065543225483 0.070777821716328196 1.0000000180025095e-35 1.0000000180025095e-35 2.5000000000000004 1.0000000180025095e-35 0.0023487525909766014 82.500000000000014 73.500000000000014 44.500000000000007 9.5000000000000018 2.5000000000000004 1946.5000000000002 0.00035375161170985418 11.05380400898366 115.50000000000001 11.268497612604166 11.233837688811567 38.500000000000007 3.5000000000000004 0.10625452230824055 0.0057137069462654582 0.0057137069462654582 11.118856028372198 1499.5000000000002 0.10625452230824055 2363.5000000000005 11.572083783024976 143.50000000000003 155.50000000000003 4.5000000000000009 0.0094482664938442228 3.5000000000000004 163.50000000000003 3.5000000000000004 11.664388325927636 4.5000000000000009 12.017943795088355 449.50000000000006 28.500000000000004 1.0000000180025095e-35 1.0000000180025095e-35 25.500000000000004 1.0000000180025095e-35
decision_type=2 2 1 2 2 2 2 2 2 2 2 2 2 2 2 2 9 2 2 2 2 2 2 2 2 2 2 2 2 2 2 2 2 2 2 2 2 2 2 2 2 2 2 2 2 2 2 2 2 2 2 2 2 2 2 2 2 2 2 2 2 2
left_child=2 3 4 23 -1 6 8 17 25 14 16 12 13 -3 28 30 -11 -6 -15 34 26 -22 -23 32 -25 -4 58 -14 -5 -30 -16 -12 33 -2 35 41 40 38 39 -38 -13 -7 -43 48 -40 -29 56 -48 -39 50 -42 -45 -51 54 -50 -55 57 -36 59 -21 -24 -58
right_child=1 11 5 9 7 19 -8 -9 -10 10 31 36 27 18 15 -17 -18 -19 -20 20 21 22 60 24 -26 -27 -28 45 29 -31 -32 -33 -34 -35 46 -37 37 43 44 -41 49 42 -44 51 -46 -47 47 -49 53 52 -52 -53 -54 55 -56 -57 61 -59 -60 -61 -62 -63
leaf_value=0.078755023786590855 -0.054715917152474897 0.078651402180243135 -0.018813064148589367 0.072755513390858714 -0.060246024076913977 -0.054755970242648035 0.082884345636119072 0.049337671745041493 0.02143272319770682 -0.057219374436921468 0.047063574990933055 0.07463330315110471 0.086417474706227418 -0.030684044596748974 -0.036270354207487088 0.06126133599107985 0.0037124521793225197 0.0047097445216743765 0.02546080621258456 -0.054916586153081426 0.037945820707700945 -0.0031048839220938389 -0.056386651476735133 0.026713257902036325 -0.054699646084846322 -0.055097542415705573 -0.008179295861579082 0.074328463725695945 0.025048602013773742 0.073446771666488553 0.0095582271246709531 0.019492925376646972 -0.054700111280247689 -0.00024211919873030294 -0.054589535398251537 0.030335200664975043 0.06955595367073851 0.078312093488505291 0.083390549865311747 0.049238564128220759 0.07923613509798566 -0.055201887390216343 -0.0010997074748918521 0.073153623202509052 0.07551719287799985 0.063663631112136784 -0.010016213045152142 -0.055127905905365163 0.084473842826336104 0.082828204380320306 0.083514567568986564 0.077582128649195378 0.085678746790691804 0.084856154937045847 0.080125234999796902 0.083872286683443972 -0.055458439253123742 -0.059488906867650473 -0.054982581704298275 -0.058415447022290824 -0.058229810248281971 -0.054696792249541382
leaf_weight=77.885542444884777 5.3283863514661771 23.624906092882156 10.98587818443775 18.041982993483543 8.159440718591215 37.633989073336124 8.991318576037882 31.470807552337646 18.053780630230904 12.385665081441402 20.897790834307671 59.902342602610588 46.323050796985626 12.131453879177572 8.8537935987114924 10.922475293278692 10.608190312981606 10.054365150630472 9.0247716158628446 7.4143671467900276 13.019217781722544 8.2646930888295191 5.8304252326488486 5.3426154702901822 5.8717681989073753 25.495096884667873 4.4070112705230704 46.194680884480476 19.603719532489777 15.059261567890642 5.9861993938684455 14.446985736489294 50.677025094628334 4.0905444547533989 6.7666989564895612 5.0826026275753966 43.233777746558189 68.134510383009911 76.338238179683685 32.484041169285774 61.712226003408432 6.8541465029120427 4.2208004221320152 43.016420423984528 86.949978530406952 41.586822137236595 5.0079498887062099 18.387300737202168 55.545422315597534 63.650968685746193 115.82684130966663 54.810210421681404 97.932968616485596 64.119478464126587 56.119874432682991 68.068060025572777 22.045582637190819 4.1818032264709473 37.203385777771473 5.1143769398331624 8.3991073668003065 72.163262270390987
leaf_count=90 68 27 75 25 76 481 22 84 90 120 68 66 40 77 81 25 69 61 32 92 48 60 62 38 75 310 39 59 92 30 36 63 648 38 88 36 61 69 67 68 62 86 39 46 90 68 47 225 46 55 97 55 82 53 54 58 268 44 469 52 79 929
